{"learner":{"attributes":{"best_iteration":"99","best_score":"0.22445947849999426","scikit_learn":"{\"_estimator_type\": \"classifier\"}"},"feature_names":[],"feature_types":[],"gradient_booster":{"model":{"gbtree_model_param":{"num_parallel_tree":"1","num_trees":"100"},"iteration_indptr":[0,1,2,3,4,5,6,7,8,9,10,11,12,13,14,15,16,17,18,19,20,21,22,23,24,25,26,27,28,29,30,31,32,33,34,35,36,37,38,39,40,41,42,43,44,45,46,47,48,49,50,51,52,53,54,55,56,57,58,59,60,61,62,63,64,65,66,67,68,69,70,71,72,73,74,75,76,77,78,79,80,81,82,83,84,85,86,87,88,89,90,91,92,93,94,95,96,97,98,99,100],"tree_info":[0,0,0,0,0,0,0,0,0,0,0,0,0,0,0,0,0,0,0,0,0,0,0,0,0,0,0,0,0,0,0,0,0,0,0,0,0,0,0,0,0,0,0,0,0,0,0,0,0,0,0,0,0,0,0,0,0,0,0,0,0,0,0,0,0,0,0,0,0,0,0,0,0,0,0,0,0,0,0,0,0,0,0,0,0,0,0,0,0,0,0,0,0,0,0,0,0,0,0,0],"trees":[{"base_weights":[-1.8803177E-3,-7.4799395E-1,1.7086473E0,1.5556526E0,-1.1760427E0,1.3994682E0,2.012892E0,1.4038172E0,1.8605732E0,-1.397025E0,1.5700623E0,1.711821E0,1.3348029E0,1.6289737E0,2.231819E0,1.6377255E0,1.3852879E0,2.2467332E-1,1.4209595E0,-1.4595995E0,-8.240262E-1,1.7222048E-1,1.4122785E0,1.8018982E0,1.6505313E0,1.0908437E0,1.3878852E0,1.8252224E0,1.4176935E0,2.15031E0,2.248344E-1,1.7992115E-1,1.4635658E-1,-1.4975205E-1,1.38821E-1,1.7163424E-1,1.3853718E-1,-1.2604868E-1,-1.5706556E-1,-1.0354024E-1,-4.8889514E-2,1.387469E-1,1.5338646E-1,1.8060404E-1,6.748281E-2,-1.5208004E-1,1.6657734E-1,1.3703512E-1,9.013958E-2,1.3912615E-1,-1.6139942E-1,1.4555214E-1,1.9908388E-1,1.7853618E-1,1.3385548E-1,1.9751948E-1,2.243912E-1],"categories":[],"categories_nodes":[],"categories_segments":[],"categories_sizes":[],"default_left":[0,0,0,0,0,0,0,0,0,0,0,0,0,0,0,0,0,0,0,0,0,0,0,0,0,0,0,0,0,0,0,0,0,0,0,0,0,0,0,0,0,0,0,0,0,0,0,0,0,0,0,0,0,0,0,0,0],"id":0,"left_children":[1,3,5,7,9,11,13,15,17,19,21,23,25,27,29,31,33,-1,35,37,39,-1,41,43,45,47,49,51,53,55,-1,-1,-1,-1,-1,-1,-1,-1,-1,-1,-1,-1,-1,-1,-1,-1,-1,-1,-1,-1,-1,-1,-1,-1,-1,-1,-1],"loss_changes":[1.0171831E5,5.4723777E4,2.2741797E3,4.0000977E2,2.8402035E4,2.4027734E2,1.021625E3,2.2910156E1,4.870381E2,1.5518438E3,8.125098E1,8.377441E0,1.2738867E2,1.8124316E2,5.6210938E0,9.205566E0,4.748242E1,0E0,1.1846924E1,8.614922E2,3.0174634E2,0E0,3.050293E0,2.6174316E0,6.225708E1,9.320239E1,8.505957E1,1.37625E2,5.9862793E1,1.7399902E1,0E0,0E0,0E0,0E0,0E0,0E0,0E0,0E0,0E0,0E0,0E0,0E0,0E0,0E0,0E0,0E0,0E0,0E0,0E0,0E0,0E0,0E0,0E0,0E0,0E0,0E0,0E0],"parents":[2147483647,0,0,1,1,2,2,3,3,4,4,5,5,6,6,7,7,8,8,9,9,10,10,11,11,12,12,13,13,14,14,15,15,16,16,18,18,19,19,20,20,22,22,23,23,24,24,25,25,26,26,27,27,28,28,29,29],"right_children":[2,4,6,8,10,12,14,16,18,20,22,24,26,28,30,32,34,-1,36,38,40,-1,42,44,46,48,50,52,54,56,-1,-1,-1,-1,-1,-1,-1,-1,-1,-1,-1,-1,-1,-1,-1,-1,-1,-1,-1,-1,-1,-1,-1,-1,-1,-1,-1],"split_conditions":[3.7231386E-1,-4.894556E-1,2.961903E-1,8.8782376E-1,8.8782376E-1,-1.223751E0,-4.2642206E-1,-1.5678136E0,8.958514E-1,5.3192027E-2,8.958514E-1,-1.5678136E0,6.914357E-1,8.958514E-1,6.7118347E-1,-1.3291786E0,-1.4751551E0,2.2467332E-1,-1.4690871E0,8.958514E-1,1.6140503E-1,1.7222048E-1,1.3230776E0,1.5358256E0,-1.4751551E0,-4.894556E-1,1.8238403E-1,8.630675E-1,-1.223751E0,8.630675E-1,2.248344E-1,1.7992115E-1,1.4635658E-1,-1.4975205E-1,1.38821E-1,1.7163424E-1,1.3853718E-1,-1.2604868E-1,-1.5706556E-1,-1.0354024E-1,-4.8889514E-2,1.387469E-1,1.5338646E-1,1.8060404E-1,6.748281E-2,-1.5208004E-1,1.6657734E-1,1.3703512E-1,9.013958E-2,1.3912615E-1,-1.6139942E-1,1.4555214E-1,1.9908388E-1,1.7853618E-1,1.3385548E-1,1.9751948E-1,2.243912E-1],"split_indices":[4,8,5,5,5,3,2,3,1,4,1,3,4,1,4,8,3,0,3,1,9,0,9,8,3,8,5,5,3,5,0,0,0,0,0,0,0,0,0,0,0,0,0,0,0,0,0,0,0,0,0,0,0,0,0,0,0],"split_type":[0,0,0,0,0,0,0,0,0,0,0,0,0,0,0,0,0,0,0,0,0,0,0,0,0,0,0,0,0,0,0,0,0,0,0,0,0,0,0,0,0,0,0,0,0,0,0,0,0,0,0,0,0,0,0,0,0],"sum_hessian":[7.9699055E4,5.549382E4,2.420524E4,8.695309E3,4.679851E4,1.2008042E4,1.2197197E4,5.8085444E3,2.8867642E3,4.331351E4,3.484998E3,2.0552224E3,9.952819E3,4.432552E3,7.7646455E3,4.1994415E2,5.3886E3,1.534626E3,1.3521382E3,3.9047742E4,4.265769E3,1.7691685E3,1.7158297E3,8.2067645E2,1.2345459E3,1.7824537E3,8.1703657E3,2.2940615E3,2.1384902E3,1.3309508E3,6.433695E3,2.130588E2,2.0688535E2,4.938776E0,5.383661E3,1.4031064E2,1.2118275E3,1.3985479E4,2.5062264E4,2.6145881E3,1.651181E3,1.4353566E3,2.804731E2,8.1707117E2,3.6053066E0,5.432654E0,1.2291133E3,7.175548E2,1.0648989E3,8.161723E3,8.6428585E0,7.127642E2,1.5812975E3,3.749519E2,1.7635382E3,4.7130743E2,8.5964343E2],"tree_param":{"num_deleted":"0","num_feature":"10","num_nodes":"57","size_leaf_vector":"1"}},{"base_weights":[-3.1911218E-4,1.4835947E0,-4.899488E-1,1.267318E0,1.701031E0,-8.19516E-1,1.6195011E0,1.2731273E0,-1.765592E-1,1.8668243E0,1.5260557E0,-1.0135E0,-5.0760967E-1,1.4220017E0,1.7357403E0,1.467488E0,1.2323062E0,1.5716549E0,2.0022967E-1,1.256458E0,1.6839346E-1,-8.195741E-1,-1.2469352E0,1.4641275E0,-1.0097107E0,1.5366883E0,1.2999524E0,1.6384245E-1,1.7836547E0,1.6649543E-1,1.4215083E-1,-1.7002915E-1,1.23529926E-1,1.311214E-1,1.7221746E-1,1.720226E-1,1.217797E-1,-1.2416692E-1,1.4737317E-1,-1.1301521E-1,-1.2872735E-1,1.3931623E-1,1.6835026E-1,-8.085786E-2,-1.2459308E-1,1.6725071E-1,1.2571587E-1,1.5797415E-1,1.2419325E-1,1.877992E-1,1.6850199E-1],"categories":[],"categories_nodes":[],"categories_segments":[],"categories_sizes":[],"default_left":[0,0,0,0,0,0,0,0,0,0,0,0,0,0,0,0,0,0,0,0,0,0,0,0,0,0,0,0,0,0,0,0,0,0,0,0,0,0,0,0,0,0,0,0,0,0,0,0,0,0,0],"id":1,"left_children":[1,3,5,7,9,11,13,15,-1,17,19,21,23,25,27,29,31,33,-1,35,-1,37,39,41,43,45,47,-1,49,-1,-1,-1,-1,-1,-1,-1,-1,-1,-1,-1,-1,-1,-1,-1,-1,-1,-1,-1,-1,-1,-1],"loss_changes":[5.7691547E4,9.242422E2,4.1507336E4,1.7632422E2,2.8204297E2,3.12375E3,1.8274219E2,7.643555E1,0E0,1.9831445E2,2.0148535E2,1.4401445E3,1.9605771E4,3.991797E1,2.0737305E1,1.3126953E1,7.369141E1,6.0054443E1,0E0,2.9651367E1,0E0,1.6837422E4,6.65918E1,6.023047E1,7.4889355E2,5.6301514E1,2.169336E1,0E0,2.8367188E1,0E0,0E0,0E0,0E0,0E0,0E0,0E0,0E0,0E0,0E0,0E0,0E0,0E0,0E0,0E0,0E0,0E0,0E0,0E0,0E0,0E0,0E0],"parents":[2147483647,0,0,1,1,2,2,3,3,4,4,5,5,6,6,7,7,9,9,10,10,11,11,12,12,13,13,14,14,15,15,16,16,17,17,19,19,21,21,22,22,23,23,24,24,25,25,26,26,28,28],"right_children":[2,4,6,8,10,12,14,16,-1,18,20,22,24,26,28,30,32,34,-1,36,-1,38,40,42,44,46,48,-1,50,-1,-1,-1,-1,-1,-1,-1,-1,-1,-1,-1,-1,-1,-1,-1,-1,-1,-1,-1,-1,-1,-1],"split_conditions":[-4.894556E-1,2.961903E-1,8.8782376E-1,1.8238403E-1,8.958514E-1,1.6140503E-1,-4.2642206E-1,-1.223751E0,-1.765592E-1,8.630675E-1,-4.2642206E-1,1.1323267E0,8.958514E-1,8.958514E-1,2.7813495E-3,-1.1338099E0,-1.1270995E0,-4.2642206E-1,2.0022967E-1,-1.5678136E0,1.6839346E-1,2.7813495E-3,-7.787255E-1,2.961903E-1,1.1323267E0,1.1323267E0,-1.223751E0,1.6384245E-1,1.1323267E0,1.6649543E-1,1.4215083E-1,-1.7002915E-1,1.23529926E-1,1.311214E-1,1.7221746E-1,1.720226E-1,1.217797E-1,-1.2416692E-1,1.4737317E-1,-1.1301521E-1,-1.2872735E-1,1.3931623E-1,1.6835026E-1,-8.085786E-2,-1.2459308E-1,1.6725071E-1,1.2571587E-1,1.5797415E-1,1.2419325E-1,1.877992E-1,1.6850199E-1],"split_indices":[8,5,5,5,1,9,2,3,0,5,2,7,1,1,7,2,3,2,0,3,0,7,3,5,7,7,3,0,7,0,0,0,0,0,0,0,0,0,0,0,0,0,0,0,0,0,0,0,0,0,0],"split_type":[0,0,0,0,0,0,0,0,0,0,0,0,0,0,0,0,0,0,0,0,0,0,0,0,0,0,0,0,0,0,0,0,0,0,0,0,0,0,0,0,0,0,0,0,0,0,0,0,0,0,0],"sum_hessian":[7.94008E4,1.9698576E4,5.9702223E4,9.879049E3,9.819526E3,5.163561E4,8.066612E3,9.860742E3,1.8307163E1,5.037091E3,4.782436E3,3.1834516E4,1.9801094E4,2.9935574E3,5.073054E3,1.7054884E3,8.1552534E3,1.5885455E3,3.4485452E3,1.7695941E3,3.0128418E3,1.7391266E4,1.444325E4,4.0185273E3,1.5782566E4,1.5373544E3,1.4562031E3,1.6853142E3,3.38774E3,3.154663E2,1.3900221E3,7.736568E0,8.1475166E3,5.853823E2,1.0031632E3,1.3282043E2,1.6367737E3,1.46882705E4,2.702995E3,3.7155032E3,1.0727746E4,3.04187E3,9.766575E2,8.526777E3,7.2557886E3,1.0312864E3,5.0606796E2,2.4560323E2,1.2105999E3,1.722372E3,1.665368E3],"tree_param":{"num_deleted":"0","num_feature":"10","num_nodes":"51","size_leaf_vector":"1"}},{"base_weights":[-2.5896975E-3,1.3402746E0,-4.5044702E-1,1.1471846E0,1.5349133E0,-7.5599056E-1,1.4730914E0,1.1522107E0,-1.6291331E-1,1.3815407E0,1.626774E0,-1.0080057E0,1.5209368E0,1.2874353E0,1.5825979E0,1.3224322E0,1.1166636E0,1.1427104E0,1.4930837E0,1.521276E0,1.6778426E-1,-1.2135111E0,-8.3140117E-1,1.9120578E-1,1.4359133E0,1.1359755E0,1.3584596E0,1.4973114E0,1.6247785E0,1.16494335E-1,1.6579211E-1,-1.5814266E-1,1.1195546E-1,1.3772987E-1,1.09261654E-1,1.667504E-1,1.4730531E-1,1.6162245E-1,1.5006383E-1,-1.3177945E-1,-1.0281241E-1,1.355197E-1,-1.2120398E-1,1.3735713E-1,1.6233398E-1,1.3650857E-1,1.0746527E-1,1.5522188E-1,1.1495447E-1,1.5313245E-1,1.4554949E-1,1.6975546E-1,1.5474284E-1],"categories":[],"categories_nodes":[],"categories_segments":[],"categories_sizes":[],"default_left":[0,0,0,0,0,0,0,0,0,0,0,0,0,0,0,0,0,0,0,0,0,0,0,0,0,0,0,0,0,0,0,0,0,0,0,0,0,0,0,0,0,0,0,0,0,0,0,0,0,0,0,0,0],"id":2,"left_children":[1,3,5,7,9,11,13,15,-1,17,19,21,23,25,27,29,31,33,35,37,-1,39,41,-1,43,45,47,49,51,-1,-1,-1,-1,-1,-1,-1,-1,-1,-1,-1,-1,-1,-1,-1,-1,-1,-1,-1,-1,-1,-1,-1,-1],"loss_changes":[4.712025E4,7.346836E2,3.4532477E4,1.3919238E2,1.3519531E2,2.9095057E4,1.6170508E2,5.7963867E1,0E0,9.5819336E1,3.0288086E1,1.6557578E3,1.6528711E2,3.0657227E1,1.5775391E1,8.74458E1,6.520508E1,1.2240845E1,6.2504883E0,1.4916992E0,0E0,4.0649414E2,2.0438262E4,0E0,4.631543E1,1.2044678E1,8.049707E1,1.7163086E-1,1.6371094E1,0E0,0E0,0E0,0E0,0E0,0E0,0E0,0E0,0E0,0E0,0E0,0E0,0E0,0E0,0E0,0E0,0E0,0E0,0E0,0E0,0E0,0E0,0E0,0E0],"parents":[2147483647,0,0,1,1,2,2,3,3,4,4,5,5,6,6,7,7,9,9,10,10,11,11,12,12,13,13,14,14,15,15,16,16,17,17,18,18,19,19,21,21,22,22,24,24,25,25,26,26,27,27,28,28],"right_children":[2,4,6,8,10,12,14,16,-1,18,20,22,24,26,28,30,32,34,36,38,-1,40,42,-1,44,46,48,50,52,-1,-1,-1,-1,-1,-1,-1,-1,-1,-1,-1,-1,-1,-1,-1,-1,-1,-1,-1,-1,-1,-1,-1,-1],"split_conditions":[-4.894556E-1,2.961903E-1,8.8782376E-1,1.8238403E-1,-4.2642206E-1,8.9150155E-1,-4.2642206E-1,-1.223751E0,-1.6291331E-1,8.8782376E-1,8.8782376E-1,2.7813495E-3,-1.223751E0,2.7813495E-3,2.7813495E-3,8.9150155E-1,-1.1270995E0,-1.223751E0,-1.4690871E0,-1.223751E0,1.6778426E-1,1.6140503E-1,1.1323267E0,1.9120578E-1,2.961903E-1,-1.1134807E0,1.1323267E0,7.3384136E-1,1.1323267E0,1.16494335E-1,1.6579211E-1,-1.5814266E-1,1.1195546E-1,1.3772987E-1,1.09261654E-1,1.667504E-1,1.4730531E-1,1.6162245E-1,1.5006383E-1,-1.3177945E-1,-1.0281241E-1,1.355197E-1,-1.2120398E-1,1.3735713E-1,1.6233398E-1,1.3650857E-1,1.0746527E-1,1.5522188E-1,1.1495447E-1,1.5313245E-1,1.4554949E-1,1.6975546E-1,1.5474284E-1],"split_indices":[8,5,5,5,2,0,2,3,0,5,5,7,3,7,7,0,3,3,3,3,0,9,7,0,5,3,7,2,7,0,0,0,0,0,0,0,0,0,0,0,0,0,0,0,0,0,0,0,0,0,0,0,0],"split_type":[0,0,0,0,0,0,0,0,0,0,0,0,0,0,0,0,0,0,0,0,0,0,0,0,0,0,0,0,0,0,0,0,0,0,0,0,0,0,0,0,0,0,0,0,0,0,0,0,0,0,0,0,0],"sum_hessian":[7.834742E4,1.95941E4,5.8753324E4,9.839647E3,9.754451E3,5.0700445E4,8.052881E3,9.822451E3,1.719702E1,3.6598745E3,6.094577E3,4.5648523E4,5.05192E3,2.992385E3,5.060496E3,1.6906E3,8.131851E3,1.168719E3,2.4911553E3,1.9979609E3,4.096616E3,2.1095244E4,2.4553281E4,8.9826715E2,4.1536523E3,9.6069324E2,2.0316918E3,1.6866676E3,3.3738284E3,1.153557E3,5.370429E2,8.119033E0,8.123732E3,2.0099057E2,9.6772845E2,2.4814427E2,2.243011E3,3.429281E2,1.6550328E3,1.3496902E4,7.5983413E3,3.6400823E3,2.09132E4,3.123154E3,1.0304985E3,1.9835425E2,7.62339E2,1.0507438E3,9.8094806E2,9.104743E2,7.761933E2,1.727521E3,1.6463074E3],"tree_param":{"num_deleted":"0","num_feature":"10","num_nodes":"53","size_leaf_vector":"1"}},{"base_weights":[-1.8866799E-3,-6.2502724E-1,1.3516903E0,1.1237531E0,-9.683265E-1,1.1426243E0,1.560701E0,1.0097717E0,1.3550825E0,-1.1557094E0,1.2976376E0,1.0441991E0,1.2137475E0,1.2303067E0,1.7514461E0,1.010736E0,-1.3993256E-1,1.3274927E0,1.4178138E0,-1.2984948E0,1.1259156E0,1.4020816E0,1.1122806E0,1.0465528E0,-1.2458598E-1,9.194589E-1,1.2803291E0,1.1284546E0,1.2663451E0,1.8328465E0,1.7091797E-1,1.1663429E-1,1.00017E-1,1.4369957E-1,1.3152683E-1,1.5096593E-1,1.3862506E-1,-1.3410212E-1,-8.941887E-2,9.71405E-2,1.2001562E-1,1.3213508E-1,1.4565809E-1,-1.5214914E-1,1.12424925E-1,1.00736044E-1,1.1410028E-1,1.3361306E-1,3.4483273E-2,1.397283E-1,1.2204547E-1,1.1500986E-1,-1.8112655E-1,1.3482392E-1,1.1878836E-1,1.9123076E-1,1.6793431E-1],"categories":[],"categories_nodes":[],"categories_segments":[],"categories_sizes":[],"default_left":[0,0,0,0,0,0,0,0,0,0,0,0,0,0,0,0,0,0,0,0,0,0,0,0,0,0,0,0,0,0,0,0,0,0,0,0,0,0,0,0,0,0,0,0,0,0,0,0,0,0,0,0,0,0,0,0,0],"id":3,"left_children":[1,3,5,7,9,11,13,15,17,19,21,23,25,27,29,31,-1,33,35,37,39,41,43,45,-1,47,49,51,53,55,-1,-1,-1,-1,-1,-1,-1,-1,-1,-1,-1,-1,-1,-1,-1,-1,-1,-1,-1,-1,-1,-1,-1,-1,-1,-1,-1],"loss_changes":[6.477429E4,3.1571498E4,1.0560742E3,2.2616992E2,1.8666043E4,8.348242E1,7.606074E2,1.4853516E1,3.0429688E0,1.322848E4,6.3447266E1,2.871582E1,1.3641113E2,1.4844238E1,2.3257812E1,8.341797E0,0E0,7.766113E-1,3.8427734E-1,6.5576953E2,2.6269531E1,7.5078125E0,4.0010864E1,1.7658691E1,0E0,3.1058484E2,3.8375E1,7.6391235E1,1.9387695E1,2.859961E1,0E0,0E0,0E0,0E0,0E0,0E0,0E0,0E0,0E0,0E0,0E0,0E0,0E0,0E0,0E0,0E0,0E0,0E0,0E0,0E0,0E0,0E0,0E0,0E0,0E0,0E0,0E0],"parents":[2147483647,0,0,1,1,2,2,3,3,4,4,5,5,6,6,7,7,8,8,9,9,10,10,11,11,12,12,13,13,14,14,15,15,17,17,18,18,19,19,20,20,21,21,22,22,23,23,25,25,26,26,27,27,28,28,29,29],"right_children":[2,4,6,8,10,12,14,16,18,20,22,24,26,28,30,32,-1,34,36,38,40,42,44,46,-1,48,50,52,54,56,-1,-1,-1,-1,-1,-1,-1,-1,-1,-1,-1,-1,-1,-1,-1,-1,-1,-1,-1,-1,-1,-1,-1,-1,-1,-1,-1],"split_conditions":[3.7231386E-1,-4.894556E-1,2.961903E-1,8.8782376E-1,8.9150155E-1,-5.6282943E-1,-4.2642206E-1,8.630675E-1,1.7161106E0,8.8782376E-1,6.560857E-1,1.8238403E-1,6.914357E-1,7.6949704E-1,8.630675E-1,-1.4591699E0,-1.3993256E-1,-1.3411947E0,-9.485406E-1,5.3192027E-2,2.7813495E-3,1.3650401E0,7.6949704E-1,9.7042465E-1,-1.2458598E-1,7.612631E-1,2.7813495E-3,6.560857E-1,-3.549369E-1,7.612631E-1,1.7091797E-1,1.1663429E-1,1.00017E-1,1.4369957E-1,1.3152683E-1,1.5096593E-1,1.3862506E-1,-1.3410212E-1,-8.941887E-2,9.71405E-2,1.2001562E-1,1.3213508E-1,1.4565809E-1,-1.5214914E-1,1.12424925E-1,1.00736044E-1,1.1410028E-1,1.3361306E-1,3.4483273E-2,1.397283E-1,1.2204547E-1,1.1500986E-1,-1.8112655E-1,1.3482392E-1,1.1878836E-1,1.9123076E-1,1.6793431E-1],"split_indices":[4,8,5,5,0,8,2,5,5,5,5,5,4,5,5,9,0,9,2,4,7,0,5,0,0,0,7,5,8,0,0,0,0,0,0,0,0,0,0,0,0,0,0,0,0,0,0,0,0,0,0,0,0,0,0,0,0],"split_type":[0,0,0,0,0,0,0,0,0,0,0,0,0,0,0,0,0,0,0,0,0,0,0,0,0,0,0,0,0,0,0,0,0,0,0,0,0,0,0,0,0,0,0,0,0,0,0,0,0,0,0,0,0,0,0,0,0],"sum_hessian":[7.6793125E4,5.2585227E4,2.42079E4,8.628587E3,4.3956637E4,1.2105579E4,1.210232E4,5.7840293E3,2.8445579E3,4.059975E4,3.3568882E3,5.0847007E3,7.0208784E3,4.4323657E3,7.669955E3,5.7822954E3,1.7339641E0,1.9910411E3,8.535166E2,3.820904E4,2.3907117E3,2.1428706E3,1.2140176E3,5.080023E3,4.678092E0,1.298106E3,5.7227725E3,1.1668658E3,3.2654998E3,2.6069363E3,5.063019E3,3.6071002E2,5.4215854E3,1.8824509E2,1.802796E3,2.0631973E2,6.471969E2,3.457047E4,3.638571E3,7.8047034E2,1.6102413E3,8.737746E2,1.2690961E3,4.9213233E0,1.2090963E3,3.5984856E3,1.4815372E3,7.517056E2,5.464003E2,1.9301805E3,3.792592E3,1.1589418E3,7.9240556E0,1.5898818E3,1.6756179E3,1.7101959E3,8.967403E2],"tree_param":{"num_deleted":"0","num_feature":"10","num_nodes":"57","size_leaf_vector":"1"}},{"base_weights":[-3.2238313E-3,-5.8257896E-1,1.2355424E0,1.021539E0,-9.0535796E-1,1.0787452E0,1.3302833E0,1.1585258E0,8.7990373E-1,-1.083121E0,1.1612931E0,1.3193951E0,1.0170549E0,1.1963029E0,1.3587039E0,1.1211789E0,1.214794E0,1.1290042E0,8.6021876E-1,-8.59634E-1,-1.2115096E0,1.3118752E0,1.1302791E0,1.1710719E0,1.6294472E0,-1.8595424E-1,1.020079E0,1.3690796E0,9.0083635E-1,1.2782995E0,1.4256183E0,1.1375221E-1,-2.1160367E-1,1.3050589E-1,1.1847396E-1,1.3875906E-1,9.886315E-2,-1.343063E-1,8.6169355E-2,-6.641238E-2,-1.0940152E-1,-1.2563314E-1,-7.970508E-2,1.1437949E-1,1.868233E-1,-1.2315323E-1,1.1319744E-1,1.3240798E-1,1.0917541E-1,1.7141901E-1,1.1747072E-1,1.090912E-1,9.2307664E-2,1.2195802E-1,1.45555E-1,-1.0686385E-1,1.3771234E-1,1.3943577E-1,1.2540792E-1,1.3888243E-1,1.4992017E-1],"categories":[],"categories_nodes":[],"categories_segments":[],"categories_sizes":[],"default_left":[0,0,0,0,0,0,0,0,0,0,0,0,0,0,0,0,0,0,0,0,0,0,0,0,0,0,0,0,0,0,0,0,0,0,0,0,0,0,0,0,0,0,0,0,0,0,0,0,0,0,0,0,0,0,0,0,0,0,0,0,0],"id":4,"left_children":[1,3,5,7,9,11,13,15,17,19,21,23,25,27,29,31,33,35,37,39,41,43,45,47,49,-1,51,53,55,57,59,-1,-1,-1,-1,-1,-1,-1,-1,-1,-1,-1,-1,-1,-1,-1,-1,-1,-1,-1,-1,-1,-1,-1,-1,-1,-1,-1,-1,-1,-1],"loss_changes":[5.3706938E4,2.6400945E4,3.528047E2,1.6470508E2,1.5595145E4,1.3207422E2,5.4958984E1,7.755371E0,1.9641846E1,1.1204453E3,1.4220215E1,8.226538E1,6.416162E1,1.3195264E2,6.409766E1,1.4106763E2,3.1171875E0,9.68692E0,1.3829834E1,6.5293164E2,4.6011328E2,5.098047E1,1.2586182E1,1.3623047E1,2.0711426E1,0E0,4.8125E1,1.948169E1,9.072362E2,1.3921875E1,1.5999023E1,0E0,0E0,0E0,0E0,0E0,0E0,0E0,0E0,0E0,0E0,0E0,0E0,0E0,0E0,0E0,0E0,0E0,0E0,0E0,0E0,0E0,0E0,0E0,0E0,0E0,0E0,0E0,0E0,0E0,0E0],"parents":[2147483647,0,0,1,1,2,2,3,3,4,4,5,5,6,6,7,7,8,8,9,9,10,10,11,11,12,12,13,13,14,14,15,15,16,16,17,17,18,18,19,19,20,20,21,21,22,22,23,23,24,24,26,26,27,27,28,28,29,29,30,30],"right_children":[2,4,6,8,10,12,14,16,18,20,22,24,26,28,30,32,34,36,38,40,42,44,46,48,50,-1,52,54,56,58,60,-1,-1,-1,-1,-1,-1,-1,-1,-1,-1,-1,-1,-1,-1,-1,-1,-1,-1,-1,-1,-1,-1,-1,-1,-1,-1,-1,-1,-1,-1],"split_conditions":[3.7231386E-1,-4.894556E-1,-4.2642206E-1,8.958514E-1,8.9150155E-1,-1.1134807E0,6.914357E-1,-2.6592982E-1,-1.5678136E0,8.958514E-1,-1.223751E0,8.9150155E-1,-1.0110811E0,7.612631E-1,-4.4270015E-1,-4.975663E-1,-1.0076591E0,2.7813495E-3,-1.4751551E0,1.1323267E0,5.3192027E-2,-2.4894591E-2,-1.1270995E0,-1.5678136E0,-1.223751E0,-1.8595424E-1,4.4008344E-1,-7.544167E-1,8.9150155E-1,-1.223751E0,1.1323267E0,1.1375221E-1,-2.1160367E-1,1.3050589E-1,1.1847396E-1,1.3875906E-1,9.886315E-2,-1.343063E-1,8.6169355E-2,-6.641238E-2,-1.0940152E-1,-1.2563314E-1,-7.970508E-2,1.1437949E-1,1.868233E-1,-1.2315323E-1,1.1319744E-1,1.3240798E-1,1.0917541E-1,1.7141901E-1,1.1747072E-1,1.090912E-1,9.2307664E-2,1.2195802E-1,1.45555E-1,-1.0686385E-1,1.3771234E-1,1.3943577E-1,1.2540792E-1,1.3888243E-1,1.4992017E-1],"split_indices":[4,8,2,1,0,3,4,4,3,1,3,0,3,0,8,4,3,7,3,7,4,4,3,3,3,0,0,8,0,3,7,0,0,0,0,0,0,0,0,0,0,0,0,0,0,0,0,0,0,0,0,0,0,0,0,0,0,0,0,0,0],"split_type":[0,0,0,0,0,0,0,0,0,0,0,0,0,0,0,0,0,0,0,0,0,0,0,0,0,0,0,0,0,0,0,0,0,0,0,0,0,0,0,0,0,0,0,0,0,0,0,0,0,0,0,0,0,0,0,0,0,0,0,0,0],"sum_hessian":[7.4831516E4,5.0986375E4,2.3845145E4,8.540484E3,4.244589E4,8.985849E3,1.4859295E4,4.337837E3,4.2026475E3,3.908451E4,3.3613784E3,1.8293378E3,7.156511E3,2.6079475E3,1.2251347E4,2.6198738E3,1.717963E3,3.0366046E2,3.8989868E3,1.4263544E4,2.4820967E4,5.670219E2,2.7943564E3,1.2406237E3,5.887142E2,6.8709207E0,7.14964E3,1.64335E3,9.6459753E2,5.573886E3,6.6774604E3,2.6073591E3,1.25147E1,4.1853085E2,1.2994321E3,1.0371601E2,1.9994444E2,1.9995624E0,3.8969873E3,7.7787197E3,6.484824E3,2.2396824E4,2.4241416E3,4.3781125E2,1.2921065E2,1.4839442E0,2.7928726E3,4.182008E2,8.224228E2,4.9390347E2,9.481069E1,4.126298E3,3.0233425E3,6.077347E2,1.0356152E3,1.8760329E2,7.7699426E2,9.5261304E2,4.6212734E3,4.464789E3,2.2126716E3],"tree_param":{"num_deleted":"0","num_feature":"10","num_nodes":"61","size_leaf_vector":"1"}},{"base_weights":[-5.1729428E-3,-5.431069E-1,1.1346718E0,-7.766324E-1,1.0997385E0,9.1993046E-1,1.3576117E0,-9.62143E-1,1.0062768E0,1.3344868E0,8.518519E-1,1.1689674E0,8.6901265E-1,1.0336659E0,1.5498254E0,-1.0969709E0,-7.3230743E-1,9.4995785E-1,1.0921637E0,1.1619495E0,1.417848E0,1.0606562E0,8.284343E-1,9.418858E-1,1.6347867E-1,9.34425E-1,7.427381E-1,1.2004133E0,8.5703206E-1,1.60119E0,1.5220354E-1,-1.1487901E-1,-6.4126626E-2,1.2936106E-1,-1.09020405E-1,9.7481266E-2,-2.0252858E-1,1.4405674E-1,1.0145581E-1,9.904567E-2,1.1822704E-1,1.615666E-1,1.2044616E-1,1.2689653E-1,9.664552E-2,-1.881088E-1,8.325337E-2,1.0675146E-1,8.5817456E-2,-1.807789E-1,9.382484E-2,-3.2436736E-2,8.655126E-2,9.558596E-2,1.3159864E-1,1.16045035E-1,7.788164E-2,1.6618027E-1,1.480994E-1],"categories":[],"categories_nodes":[],"categories_segments":[],"categories_sizes":[],"default_left":[0,0,0,0,0,0,0,0,0,0,0,0,0,0,0,0,0,0,0,0,0,0,0,0,0,0,0,0,0,0,0,0,0,0,0,0,0,0,0,0,0,0,0,0,0,0,0,0,0,0,0,0,0,0,0,0,0,0,0],"id":5,"left_children":[1,3,5,7,9,11,13,15,17,19,21,23,25,27,29,31,33,35,37,39,41,43,45,47,-1,49,51,53,55,57,-1,-1,-1,-1,-1,-1,-1,-1,-1,-1,-1,-1,-1,-1,-1,-1,-1,-1,-1,-1,-1,-1,-1,-1,-1,-1,-1,-1,-1],"loss_changes":[4.4577316E4,1.8949635E4,1.1146816E3,1.4304125E4,3.5658984E2,1.4958008E2,7.103789E2,1.213E3,1.867871E1,4.3739746E1,1.3755127E1,2.1140405E2,8.078223E1,1.2447363E2,7.8027344E0,5.8218945E2,1.0504294E4,1.8458691E2,4.2004395E1,2.4307861E0,8.7674805E1,4.625763E0,3.1506958E1,1.3341309E1,0E0,6.978369E1,4.4191992E2,6.062256E1,4.828528E1,1.5749512E1,0E0,0E0,0E0,0E0,0E0,0E0,0E0,0E0,0E0,0E0,0E0,0E0,0E0,0E0,0E0,0E0,0E0,0E0,0E0,0E0,0E0,0E0,0E0,0E0,0E0,0E0,0E0,0E0,0E0],"parents":[2147483647,0,0,1,1,2,2,3,3,4,4,5,5,6,6,7,7,8,8,9,9,10,10,11,11,12,12,13,13,14,14,15,15,16,16,17,17,18,18,19,19,20,20,21,21,22,22,23,23,25,25,26,26,27,27,28,28,29,29],"right_children":[2,4,6,8,10,12,14,16,18,20,22,24,26,28,30,32,34,36,38,40,42,44,46,48,-1,50,52,54,56,58,-1,-1,-1,-1,-1,-1,-1,-1,-1,-1,-1,-1,-1,-1,-1,-1,-1,-1,-1,-1,-1,-1,-1,-1,-1,-1,-1,-1,-1],"split_conditions":[3.7231386E-1,8.8782376E-1,2.961903E-1,8.9150155E-1,8.958514E-1,-1.223751E0,-4.2642206E-1,1.6140503E-1,-2.6592982E-1,2.7813495E-3,-1.4690871E0,8.9150155E-1,7.612631E-1,8.958514E-1,8.630675E-1,5.3192027E-2,8.958514E-1,-4.975663E-1,-1.223751E0,1.0061505E0,1.1323267E0,-7.1648794E-1,-1.3699999E0,-1.5678136E0,1.6347867E-1,-1.1270995E0,8.9150155E-1,8.8782376E-1,-1.1134807E0,7.612631E-1,1.5220354E-1,-1.1487901E-1,-6.4126626E-2,1.2936106E-1,-1.09020405E-1,9.7481266E-2,-2.0252858E-1,1.4405674E-1,1.0145581E-1,9.904567E-2,1.1822704E-1,1.615666E-1,1.2044616E-1,1.2689653E-1,9.664552E-2,-1.881088E-1,8.325337E-2,1.0675146E-1,8.5817456E-2,-1.807789E-1,9.382484E-2,-3.2436736E-2,8.655126E-2,9.558596E-2,1.3159864E-1,1.16045035E-1,7.788164E-2,1.6618027E-1,1.480994E-1],"split_indices":[4,5,5,0,1,3,2,9,4,7,3,0,0,1,5,4,1,4,3,5,7,2,3,3,0,3,0,5,3,0,0,0,0,0,0,0,0,0,0,0,0,0,0,0,0,0,0,0,0,0,0,0,0,0,0,0,0,0,0],"split_type":[0,0,0,0,0,0,0,0,0,0,0,0,0,0,0,0,0,0,0,0,0,0,0,0,0,0,0,0,0,0,0,0,0,0,0,0,0,0,0,0,0,0,0,0,0,0,0,0,0,0,0,0,0,0,0,0,0,0,0],"sum_hessian":[7.2698805E4,4.9390273E4,2.3308531E4,4.324382E4,6.146452E3,1.187518E4,1.1433353E4,3.9168793E4,4.0750264E3,3.154633E3,2.9918188E3,2.0121028E3,9.863076E3,4.2600664E3,7.173286E3,2.468444E4,1.4484354E4,2.468442E3,1.6065845E3,1.0325156E3,2.1221177E3,2.9723254E2,2.6945864E3,1.3547163E3,6.5738654E2,6.493128E3,3.3699487E3,2.1883782E3,2.0716882E3,2.4985642E3,4.674722E3,2.2162746E4,2.521694E3,2.1742317E3,1.2310121E4,2.4486584E3,1.9783396E1,2.8947018E2,1.3171143E3,1.146551E2,9.178605E2,1.0978212E3,1.0242964E3,8.86742E1,2.0855833E2,3.3789043E0,2.6912075E3,5.3702686E2,8.176894E2,8.38365E0,6.484744E3,3.475494E2,3.0223992E3,7.0527673E2,1.4831013E3,4.217556E2,1.6499326E3,1.6524426E3,8.461216E2],"tree_param":{"num_deleted":"0","num_feature":"10","num_nodes":"59","size_leaf_vector":"1"}},{"base_weights":[-2.5057546E-3,-5.061314E-1,1.0526375E0,-7.0655835E-1,9.2227286E-1,9.044559E-1,1.1439836E0,-4.4047862E-1,-8.7616664E-1,8.7321424E-1,9.9606663E-1,1.131617E0,8.470323E-1,1.0181736E0,1.170743E0,-8.5376287E-1,1.2164713E0,-9.8700225E-1,-5.9027094E-1,8.952891E-1,-2.0219831E-1,1.3221706E0,9.2473143E-1,9.780195E-1,1.4499034E0,-1.8467107E-1,8.501888E-1,1.1733801E0,7.5482595E-1,1.2684453E0,1.1507324E0,-1.0699534E-1,-6.674264E-2,1.24123685E-1,1.1167133E-1,-1.1476225E-1,-8.445405E-2,1.3528384E-1,-8.6324595E-2,8.8512346E-2,1.0909724E-1,1.0280049E-1,1.5880159E-1,9.990459E-2,8.526094E-2,1.1883898E-1,9.015318E-2,1.5221603E-1,1.0546887E-1,9.119456E-2,7.665882E-2,1.1773584E-1,-1.5855822E-1,-9.9675536E-2,1.2029816E-1,1.151042E-1,1.4962578E-1,-1.5503539E-1,1.1525341E-1],"categories":[],"categories_nodes":[],"categories_segments":[],"categories_sizes":[],"default_left":[0,0,0,0,0,0,0,0,0,0,0,0,0,0,0,0,0,0,0,0,0,0,0,0,0,0,0,0,0,0,0,0,0,0,0,0,0,0,0,0,0,0,0,0,0,0,0,0,0,0,0,0,0,0,0,0,0,0,0],"id":6,"left_children":[1,3,5,7,9,11,13,15,17,19,21,23,25,27,29,31,33,35,37,39,-1,41,43,45,47,-1,49,51,53,55,57,-1,-1,-1,-1,-1,-1,-1,-1,-1,-1,-1,-1,-1,-1,-1,-1,-1,-1,-1,-1,-1,-1,-1,-1,-1,-1,-1,-1],"loss_changes":[3.7401547E4,1.3640427E4,3.0677344E2,1.8851738E3,2.0355469E1,1.12228516E2,4.615625E1,1.1140502E4,8.0793164E2,2.2740234E2,5.3075195E1,8.403198E1,6.049463E1,1.002522E2,2.1202148E1,5.23792E2,6.6376953E0,4.1973047E2,3.783453E3,6.0046387E0,0E0,3.094806E1,9.430664E0,1.794812E1,1.4582275E1,0E0,3.504248E1,1.8935059E1,7.236652E2,5.0716064E1,4.8658203E1,0E0,0E0,0E0,0E0,0E0,0E0,0E0,0E0,0E0,0E0,0E0,0E0,0E0,0E0,0E0,0E0,0E0,0E0,0E0,0E0,0E0,0E0,0E0,0E0,0E0,0E0,0E0,0E0],"parents":[2147483647,0,0,1,1,2,2,3,3,4,4,5,5,6,6,7,7,8,8,9,9,10,10,11,11,12,12,13,13,14,14,15,15,16,16,17,17,18,18,19,19,21,21,22,22,23,23,24,24,26,26,27,27,28,28,29,29,30,30],"right_children":[2,4,6,8,10,12,14,16,18,20,22,24,26,28,30,32,34,36,38,40,-1,42,44,46,48,-1,50,52,54,56,58,-1,-1,-1,-1,-1,-1,-1,-1,-1,-1,-1,-1,-1,-1,-1,-1,-1,-1,-1,-1,-1,-1,-1,-1,-1,-1,-1,-1],"split_conditions":[3.7231386E-1,8.9150155E-1,-4.2642206E-1,8.958514E-1,-2.6592982E-1,-1.1134807E0,6.914357E-1,1.6140503E-1,-2.6592982E-1,-4.975663E-1,-1.223751E0,8.9150155E-1,-1.0110811E0,7.612631E-1,-1.223751E0,2.7813495E-3,-1.8938793E-1,2.7813495E-3,-7.658832E-1,1.5460258E0,-2.0219831E-1,-2.4894591E-2,-1.8938793E-1,-1.4617274E0,-1.223751E0,-1.8467107E-1,4.4008344E-1,6.7118347E-1,8.9150155E-1,8.125785E-1,-1.1270995E0,-1.0699534E-1,-6.674264E-2,1.24123685E-1,1.1167133E-1,-1.1476225E-1,-8.445405E-2,1.3528384E-1,-8.6324595E-2,8.8512346E-2,1.0909724E-1,1.0280049E-1,1.5880159E-1,9.990459E-2,8.526094E-2,1.1883898E-1,9.015318E-2,1.5221603E-1,1.0546887E-1,9.119456E-2,7.665882E-2,1.1773584E-1,-1.5855822E-1,-9.9675536E-2,1.2029816E-1,1.151042E-1,1.4962578E-1,-1.5503539E-1,1.1525341E-1],"split_indices":[4,0,2,1,4,3,4,9,4,4,3,0,3,0,3,7,4,7,0,2,0,4,4,2,3,0,0,4,0,0,3,0,0,0,0,0,0,0,0,0,0,0,0,0,0,0,0,0,0,0,0,0,0,0,0,0,0,0,0],"split_type":[0,0,0,0,0,0,0,0,0,0,0,0,0,0,0,0,0,0,0,0,0,0,0,0,0,0,0,0,0,0,0,0,0,0,0,0,0,0,0,0,0,0,0,0,0,0,0,0,0,0,0,0,0,0,0,0,0,0,0],"sum_hessian":[7.0381414E4,4.7642098E4,2.2739314E4,4.1780203E4,5.861896E3,8.676013E3,1.4063302E4,1.6265948E4,2.5514254E4,3.5287737E3,2.333122E3,1.7468733E3,6.9291396E3,2.4734294E3,1.1589873E4,1.3019139E4,3.2468098E3,1.838452E4,7.1297334E3,3.5027573E3,2.6016565E1,4.1561823E2,1.9175039E3,1.181016E3,5.658573E2,7.4263225E0,6.9217134E3,1.5540682E3,9.193613E2,1.959611E3,9.630262E3,6.024582E3,6.994556E3,2.5919092E3,6.5490063E2,8.638212E3,9.746309E3,8.777458E2,6.2519873E3,3.3350266E3,1.6773051E2,1.9961029E2,2.1600793E2,9.380677E2,9.794362E2,3.1102945E2,8.699866E2,4.7598212E2,8.987519E1,3.9752444E3,2.946469E3,1.552403E3,1.665207E0,1.8705345E2,7.323079E2,1.2971676E3,6.624434E2,5.8464804E0,9.624415E3],"tree_param":{"num_deleted":"0","num_feature":"10","num_nodes":"59","size_leaf_vector":"1"}},{"base_weights":[-4.625143E-3,9.3066245E-1,-3.3305067E-1,7.5956714E-1,1.1142162E0,-5.672126E-1,1.077097E0,7.636517E-1,-1.6456248E-1,1.2846603E0,9.420152E-1,-7.603411E-1,9.537554E-1,9.1109556E-1,1.1817814E0,8.872027E-1,7.25981E-1,9.7616744E-1,1.43466E-1,6.937235E-1,1.098579E0,-8.98994E-1,-5.3302693E-1,1.3051825E0,8.814738E-1,7.5031316E-1,9.879851E-1,1.22256E0,1.088986E0,8.0225766E-2,1.0493505E-1,-2.3474076E-1,7.310663E-2,7.4303284E-2,1.1130416E-1,1.1706811E-1,6.559606E-2,1.1361821E-1,1.0057496E-1,-7.528745E-2,-1.0679697E-1,1.0902684E-1,-8.938647E-2,1.1423784E-1,1.3297676E-1,8.250081E-2,1.0554712E-1,1.2633024E-1,7.0971034E-2,1.17065385E-1,7.936E-2,1.1521387E-1,1.2569796E-1,9.8266155E-2,1.1416458E-1],"categories":[],"categories_nodes":[],"categories_segments":[],"categories_sizes":[],"default_left":[0,0,0,0,0,0,0,0,0,0,0,0,0,0,0,0,0,0,0,0,0,0,0,0,0,0,0,0,0,0,0,0,0,0,0,0,0,0,0,0,0,0,0,0,0,0,0,0,0,0,0,0,0,0,0],"id":7,"left_children":[1,3,5,7,9,11,13,15,-1,17,19,21,23,25,27,29,31,33,-1,35,37,39,41,43,45,47,49,51,53,-1,-1,-1,-1,-1,-1,-1,-1,-1,-1,-1,-1,-1,-1,-1,-1,-1,-1,-1,-1,-1,-1,-1,-1,-1,-1],"loss_changes":[2.0975027E4,5.564824E2,1.668837E4,9.1521484E1,2.5001172E2,1.273198E4,1.2399609E2,4.2049805E1,0E0,1.9752441E2,1.6489624E2,1.2116562E3,1.2290576E2,3.372339E1,1.5358398E1,2.8618164E1,1.1166992E2,4.4151367E1,0E0,2.8963074E1,7.974365E0,5.8897266E2,8.537188E3,1.807251E0,3.89563E1,1.7975464E1,6.592505E1,5.9589844E0,6.4681396E0,0E0,0E0,0E0,0E0,0E0,0E0,0E0,0E0,0E0,0E0,0E0,0E0,0E0,0E0,0E0,0E0,0E0,0E0,0E0,0E0,0E0,0E0,0E0,0E0,0E0,0E0],"parents":[2147483647,0,0,1,1,2,2,3,3,4,4,5,5,6,6,7,7,9,9,10,10,11,11,12,12,13,13,14,14,15,15,16,16,17,17,19,19,20,20,21,21,22,22,23,23,24,24,25,25,26,26,27,27,28,28],"right_children":[2,4,6,8,10,12,14,16,-1,18,20,22,24,26,28,30,32,34,-1,36,38,40,42,44,46,48,50,52,54,-1,-1,-1,-1,-1,-1,-1,-1,-1,-1,-1,-1,-1,-1,-1,-1,-1,-1,-1,-1,-1,-1,-1,-1,-1,-1],"split_conditions":[-4.894556E-1,2.961903E-1,8.8782376E-1,1.8238403E-1,8.958514E-1,8.9150155E-1,-4.2642206E-1,-1.0076591E0,-1.6456248E-1,8.630675E-1,-4.2642206E-1,1.6140503E-1,-1.223751E0,2.7813495E-3,8.9150155E-1,7.336554E-1,-8.950625E-1,-4.8443523E-1,1.43466E-1,-1.5678136E0,8.952978E-1,1.1323267E0,8.958514E-1,1.0493478E0,2.961903E-1,-1.5678136E0,1.1323267E0,2.7813495E-3,2.7813495E-3,8.0225766E-2,1.0493505E-1,-2.3474076E-1,7.310663E-2,7.4303284E-2,1.1130416E-1,1.1706811E-1,6.559606E-2,1.1361821E-1,1.0057496E-1,-7.528745E-2,-1.0679697E-1,1.0902684E-1,-8.938647E-2,1.1423784E-1,1.3297676E-1,8.250081E-2,1.0554712E-1,1.2633024E-1,7.0971034E-2,1.17065385E-1,7.936E-2,1.1521387E-1,1.2569796E-1,9.8266155E-2,1.1416458E-1],"split_indices":[8,5,5,5,1,0,2,3,0,5,2,9,3,7,0,0,3,2,0,3,0,7,1,0,5,3,7,7,7,0,0,0,0,0,0,0,0,0,0,0,0,0,0,0,0,0,0,0,0,0,0,0,0,0,0],"split_type":[0,0,0,0,0,0,0,0,0,0,0,0,0,0,0,0,0,0,0,0,0,0,0,0,0,0,0,0,0,0,0,0,0,0,0,0,0,0,0,0,0,0,0,0,0,0,0,0,0,0,0,0,0,0,0],"sum_hessian":[6.8282234E4,1.7745346E4,5.053689E4,9.187019E3,8.558326E3,4.3340574E4,7.196317E3,9.172125E3,1.4893946E1,4.297858E3,4.2604688E3,3.84578E4,4.882771E3,2.78684E3,4.409477E3,2.1378706E3,7.0342544E3,1.4085361E3,2.8893218E3,1.6496888E3,2.6107798E3,2.3885572E4,1.45722295E4,8.3005585E2,4.052715E3,9.050541E2,1.8817859E3,3.054858E3,1.3546189E3,1.4068213E3,7.310494E2,1.0858824E1,7.0233955E3,5.234256E2,8.8511053E2,1.1882975E2,1.5308591E3,1.8501058E3,7.6067395E2,1.2812006E4,1.1073565E4,2.6497625E3,1.1922467E4,1.1512914E2,7.149267E2,3.0640964E3,9.886188E2,6.417192E1,8.408822E2,9.675402E2,9.1424567E2,1.01423413E3,2.0406239E3,4.5519724E2,8.994217E2],"tree_param":{"num_deleted":"0","num_feature":"10","num_nodes":"55","size_leaf_vector":"1"}},{"base_weights":[-2.3071277E-3,-4.5930907E-1,9.454095E-1,8.418258E-1,-7.435631E-1,7.4019295E-1,1.1712135E0,7.632467E-1,1.0150818E0,-8.9875466E-1,8.478684E-1,6.3598627E-1,8.138698E-1,8.390802E-1,1.3827001E0,8.2567424E-1,6.0459685E-1,1.3944687E-1,6.284455E-1,-1.0255836E0,8.724936E-1,9.3885785E-1,6.321502E-1,6.381321E-1,-1.2510738E-1,9.050344E-1,6.392287E-1,9.9851346E-1,6.7702174E-1,1.4350592E0,1.3534604E-1,7.6484956E-2,8.834556E-2,-2.1953146E-1,6.1384942E-2,5.6733854E-2,7.693651E-2,-1.0731848E-1,-6.0713977E-2,7.818668E-2,9.6077874E-2,1.01732306E-1,8.591807E-2,7.6032534E-2,5.0208163E-2,5.9422582E-2,7.184598E-2,8.008318E-2,1.0068052E-1,-5.076601E-2,8.0673784E-2,7.370817E-2,1.1305232E-1,5.2600242E-2,7.522968E-2,1.509246E-1,1.2834474E-1],"categories":[],"categories_nodes":[],"categories_segments":[],"categories_sizes":[],"default_left":[0,0,0,0,0,0,0,0,0,0,0,0,0,0,0,0,0,0,0,0,0,0,0,0,0,0,0,0,0,0,0,0,0,0,0,0,0,0,0,0,0,0,0,0,0,0,0,0,0,0,0,0,0,0,0,0,0],"id":8,"left_children":[1,3,5,7,9,11,13,15,17,19,21,23,25,27,29,31,33,-1,35,37,39,41,43,45,-1,47,49,51,53,55,-1,-1,-1,-1,-1,-1,-1,-1,-1,-1,-1,-1,-1,-1,-1,-1,-1,-1,-1,-1,-1,-1,-1,-1,-1,-1,-1],"loss_changes":[2.8665434E4,1.6515684E4,9.969121E2,1.08229004E2,9.051832E3,8.610986E1,7.1883203E2,5.4095703E1,3.65136E2,7.502199E3,6.3329834E1,1.9740723E1,1.046001E2,1.024209E2,7.6435547E0,1.3217773E1,4.1769287E1,0E0,1.0220917E1,6.2002734E2,1.7105103E1,1.3433594E1,1.5776642E1,1.6055054E1,0E0,4.5197754E1,4.3635065E2,6.85105E1,2.2134827E1,2.311084E1,0E0,0E0,0E0,0E0,0E0,0E0,0E0,0E0,0E0,0E0,0E0,0E0,0E0,0E0,0E0,0E0,0E0,0E0,0E0,0E0,0E0,0E0,0E0,0E0,0E0,0E0,0E0],"parents":[2147483647,0,0,1,1,2,2,3,3,4,4,5,5,6,6,7,7,8,8,9,9,10,10,11,11,12,12,13,13,14,14,15,15,16,16,18,18,19,19,20,20,21,21,22,22,23,23,25,25,26,26,27,27,28,28,29,29],"right_children":[2,4,6,8,10,12,14,16,18,20,22,24,26,28,30,32,34,-1,36,38,40,42,44,46,-1,48,50,52,54,56,-1,-1,-1,-1,-1,-1,-1,-1,-1,-1,-1,-1,-1,-1,-1,-1,-1,-1,-1,-1,-1,-1,-1,-1,-1,-1,-1],"split_conditions":[3.7231386E-1,-4.894556E-1,2.961903E-1,8.8782376E-1,8.8782376E-1,-5.383715E-1,-4.2642206E-1,8.952978E-1,8.958514E-1,8.9150155E-1,8.9150155E-1,1.8238403E-1,7.612631E-1,8.958514E-1,8.630675E-1,8.958514E-1,9.7042465E-1,1.3944687E-1,1.7161106E0,5.3192027E-2,8.958514E-1,8.958514E-1,8.958514E-1,7.336554E-1,-1.2510738E-1,8.958514E-1,8.9150155E-1,8.8782376E-1,-8.726301E-1,7.612631E-1,1.3534604E-1,7.6484956E-2,8.834556E-2,-2.1953146E-1,6.1384942E-2,5.6733854E-2,7.693651E-2,-1.0731848E-1,-6.0713977E-2,7.818668E-2,9.6077874E-2,1.01732306E-1,8.591807E-2,7.6032534E-2,5.0208163E-2,5.9422582E-2,7.184598E-2,8.008318E-2,1.0068052E-1,-5.076601E-2,8.0673784E-2,7.370817E-2,1.1305232E-1,5.2600242E-2,7.522968E-2,1.509246E-1,1.2834474E-1],"split_indices":[4,8,5,5,5,8,2,0,1,0,0,5,0,1,5,1,0,0,5,4,1,1,1,0,0,1,0,5,8,0,0,0,0,0,0,0,0,0,0,0,0,0,0,0,0,0,0,0,0,0,0,0,0,0,0,0,0],"split_type":[0,0,0,0,0,0,0,0,0,0,0,0,0,0,0,0,0,0,0,0,0,0,0,0,0,0,0,0,0,0,0,0,0,0,0,0,0,0,0,0,0,0,0,0,0,0,0,0,0,0,0,0,0,0,0,0,0],"sum_hessian":[6.618336E4,4.4652047E4,2.1531312E4,8.0055864E3,3.664646E4,1.1282114E4,1.0249199E4,5.5113555E3,2.4942312E3,3.3390734E4,3.2557275E3,4.6768823E3,6.605232E3,3.9892178E3,6.259981E3,3.9520493E3,1.559306E3,1.2576022E3,1.2366289E3,3.1159967E4,2.2307654E3,2.2875088E3,9.682188E2,4.672231E3,4.6511407E0,4.3370566E3,2.2681753E3,2.0082943E3,1.9809236E3,2.2259473E3,4.034034E3,1.9322562E3,2.019793E3,4.3576803E0,1.5549482E3,8.660918E2,3.705371E2,2.7975924E4,3.1840432E3,1.1056476E3,1.1251178E3,1.1465916E3,1.1409171E3,4.8521826E2,4.8300058E2,3.0264182E3,1.6458129E3,2.1473071E3,2.1897495E3,2.8880136E2,1.9793739E3,6.7604346E2,1.3322509E3,6.6159564E2,1.3193279E3,1.4885938E3,7.3735345E2],"tree_param":{"num_deleted":"0","num_feature":"10","num_nodes":"57","size_leaf_vector":"1"}},{"base_weights":[-6.2818024E-3,8.0595076E-1,-2.9615253E-1,6.387163E-1,9.944113E-1,-5.019102E-1,9.461745E-1,6.4264506E-1,-1.5579027E-1,8.4684867E-1,1.0918682E0,-6.72276E-1,7.959497E-1,7.729756E-1,1.0586516E0,8.692107E-1,6.170182E-1,6.6756946E-1,9.3914336E-1,9.918779E-1,1.1429232E0,-8.7298733E-1,-5.038065E-1,1.1500226E0,7.2393876E-1,6.296963E-1,8.413417E-1,9.628644E-1,1.1069963E0,7.5339966E-2,1.06900096E-1,-2.574701E-1,6.2058944E-2,6.7175515E-2,-1.438116E-1,1.1138798E-1,9.193869E-2,1.0093244E-1,8.991933E-2,1.1611533E-1,1.09647416E-1,-9.774434E-2,-6.9405675E-2,1.232456E-1,-8.628641E-2,9.9053316E-2,1.17552035E-1,6.663921E-2,8.6653955E-2,9.609627E-2,5.620739E-2,1.03163E-1,6.465324E-2,1.0078657E-1,8.568933E-2,1.20244436E-1,1.00892745E-1],"categories":[],"categories_nodes":[],"categories_segments":[],"categories_sizes":[],"default_left":[0,0,0,0,0,0,0,0,0,0,0,0,0,0,0,0,0,0,0,0,0,0,0,0,0,0,0,0,0,0,0,0,0,0,0,0,0,0,0,0,0,0,0,0,0,0,0,0,0,0,0,0,0,0,0,0,0],"id":9,"left_children":[1,3,5,7,9,11,13,15,-1,17,19,21,23,25,27,29,31,33,35,37,39,41,43,45,47,49,51,53,55,-1,-1,-1,-1,-1,-1,-1,-1,-1,-1,-1,-1,-1,-1,-1,-1,-1,-1,-1,-1,-1,-1,-1,-1,-1,-1,-1,-1],"loss_changes":[1.4959503E4,5.260615E2,1.197015E4,7.7438965E1,1.1204199E2,8.883329E3,1.2880518E2,5.0802002E1,0E0,5.1145752E1,2.2999512E1,1.2003672E3,1.1803516E2,2.516858E1,1.760254E1,1.9927246E1,9.217944E1,1.0368713E1,6.0981445E0,1.6884766E0,1.3713379E0,3.021836E2,1.2038842E4,2.0327148E0,3.1236206E1,1.8532532E1,6.5060425E1,5.62146E0,2.380249E1,0E0,0E0,0E0,0E0,0E0,0E0,0E0,0E0,0E0,0E0,0E0,0E0,0E0,0E0,0E0,0E0,0E0,0E0,0E0,0E0,0E0,0E0,0E0,0E0,0E0,0E0,0E0,0E0],"parents":[2147483647,0,0,1,1,2,2,3,3,4,4,5,5,6,6,7,7,9,9,10,10,11,11,12,12,13,13,14,14,15,15,16,16,17,17,18,18,19,19,20,20,21,21,22,22,23,23,24,24,25,25,26,26,27,27,28,28],"right_children":[2,4,6,8,10,12,14,16,-1,18,20,22,24,26,28,30,32,34,36,38,40,42,44,46,48,50,52,54,56,-1,-1,-1,-1,-1,-1,-1,-1,-1,-1,-1,-1,-1,-1,-1,-1,-1,-1,-1,-1,-1,-1,-1,-1,-1,-1,-1,-1],"split_conditions":[-4.894556E-1,2.961903E-1,8.8782376E-1,1.8238403E-1,-4.2642206E-1,8.9150155E-1,-4.2642206E-1,-1.4690871E0,-1.5579027E-1,8.8782376E-1,8.8782376E-1,2.7813495E-3,-1.223751E0,2.7813495E-3,2.7813495E-3,6.547323E-1,-1.3591366E0,8.630675E-1,-1.4690871E0,1.2320101E0,8.952978E-1,1.6140503E-1,1.1323267E0,1.0493478E0,1.7786361E-1,-1.223751E0,1.1323267E0,8.9150155E-1,1.1323267E0,7.5339966E-2,1.06900096E-1,-2.574701E-1,6.2058944E-2,6.7175515E-2,-1.438116E-1,1.1138798E-1,9.193869E-2,1.0093244E-1,8.991933E-2,1.1611533E-1,1.09647416E-1,-9.774434E-2,-6.9405675E-2,1.232456E-1,-8.628641E-2,9.9053316E-2,1.17552035E-1,6.663921E-2,8.6653955E-2,9.609627E-2,5.620739E-2,1.03163E-1,6.465324E-2,1.0078657E-1,8.568933E-2,1.20244436E-1,1.00892745E-1],"split_indices":[8,5,5,5,2,0,2,3,0,5,5,7,3,7,7,0,3,5,3,9,0,9,7,0,5,3,7,0,7,0,0,0,0,0,0,0,0,0,0,0,0,0,0,0,0,0,0,0,0,0,0,0,0,0,0,0,0],"split_type":[0,0,0,0,0,0,0,0,0,0,0,0,0,0,0,0,0,0,0,0,0,0,0,0,0,0,0,0,0,0,0,0,0,0,0,0,0,0,0,0,0,0,0,0,0,0,0,0,0,0,0,0,0,0,0,0,0],"sum_hessian":[6.3535816E4,1.6710463E4,4.682535E4,8.856154E3,7.854309E3,4.017247E4,6.6528813E3,8.841049E3,1.5105333E1,3.1279165E3,4.7263926E3,3.5511477E4,4.660992E3,2.6224893E3,4.0303923E3,8.9504816E2,7.946001E3,1.0658237E3,2.0620928E3,1.6044802E3,3.1219124E3,1.6203163E4,1.9308314E4,7.8520807E2,3.875784E3,8.5041943E2,1.77207E3,1.3588893E3,2.671503E3,5.69627E2,3.254211E2,8.076105E0,7.937925E3,1.0643889E3,1.4347979E0,2.0384117E2,1.8582516E3,1.3419819E3,2.624983E2,2.2247554E3,8.97157E2,1.0227876E4,5.9752876E3,3.3082888E3,1.6000026E4,1.1372126E2,6.714868E2,2.7654548E3,1.1103291E3,1.4192944E2,7.0849E2,8.942642E2,8.778057E2,9.478626E2,4.110267E2,1.3481346E3,1.3233683E3],"tree_param":{"num_deleted":"0","num_feature":"10","num_nodes":"57","size_leaf_vector":"1"}},{"base_weights":[-5.837457E-3,-4.2673194E-1,8.500639E-1,7.120291E-1,-6.8477577E-1,6.555949E-1,1.0758758E0,6.3709795E-1,8.8555914E-1,-8.27177E-1,7.214021E-1,5.209866E-1,7.448467E-1,7.2607785E-1,1.3091681E0,5.797974E-1,6.918638E-1,1.308247E-1,4.891835E-1,-9.3069404E-1,-5.587813E-1,5.6539E-1,8.004097E-1,7.548188E-1,4.7558758E-1,9.921588E-1,6.9652396E-1,8.825482E-1,5.710189E-1,1.3648084E0,1.2765978E-1,7.066584E-2,4.417494E-2,6.9348E-2,-1.3685392E-1,8.500226E-2,4.617807E-2,-7.9634264E-2,-1.0835075E-1,-8.067624E-2,-3.5609704E-2,2.3557028E-2,6.0639363E-2,1.0039305E-1,5.8989722E-2,9.518077E-2,7.1413055E-2,6.153963E-2,4.440744E-2,1.1315932E-1,9.147411E-2,4.7436442E-2,7.4941896E-2,6.398531E-2,1.00984015E-1,9.035359E-2,5.0687965E-2,1.1568969E-1,1.4097676E-1],"categories":[],"categories_nodes":[],"categories_segments":[],"categories_sizes":[],"default_left":[0,0,0,0,0,0,0,0,0,0,0,0,0,0,0,0,0,0,0,0,0,0,0,0,0,0,0,0,0,0,0,0,0,0,0,0,0,0,0,0,0,0,0,0,0,0,0,0,0,0,0,0,0,0,0,0,0,0,0],"id":10,"left_children":[1,3,5,7,9,11,13,15,17,19,21,23,25,27,29,31,33,-1,35,37,39,41,43,45,47,49,51,53,55,57,-1,-1,-1,-1,-1,-1,-1,-1,-1,-1,-1,-1,-1,-1,-1,-1,-1,-1,-1,-1,-1,-1,-1,-1,-1,-1,-1,-1,-1],"loss_changes":[2.2086861E4,1.2077658E4,8.868301E2,9.81687E1,6.7101973E3,1.3010449E2,7.6208594E2,1.6252197E1,3.825984E2,8.448457E2,3.753369E1,4.5647827E1,7.733423E1,9.031592E1,8.420898E0,4.5213623E1,9.967529E0,0E0,1.1295502E1,4.4991602E2,4.2550122E2,1.3913971E1,8.6951904E1,4.954254E0,1.57283325E1,1.04592285E1,6.386499E1,5.68562E1,3.97005E1,1.7589111E1,0E0,0E0,0E0,0E0,0E0,0E0,0E0,0E0,0E0,0E0,0E0,0E0,0E0,0E0,0E0,0E0,0E0,0E0,0E0,0E0,0E0,0E0,0E0,0E0,0E0,0E0,0E0,0E0,0E0],"parents":[2147483647,0,0,1,1,2,2,3,3,4,4,5,5,6,6,7,7,8,8,9,9,10,10,11,11,12,12,13,13,14,14,15,15,16,16,18,18,19,19,20,20,21,21,22,22,23,23,24,24,25,25,26,26,27,27,28,28,29,29],"right_children":[2,4,6,8,10,12,14,16,18,20,22,24,26,28,30,32,34,-1,36,38,40,42,44,46,48,50,52,54,56,58,-1,-1,-1,-1,-1,-1,-1,-1,-1,-1,-1,-1,-1,-1,-1,-1,-1,-1,-1,-1,-1,-1,-1,-1,-1,-1,-1,-1,-1],"split_conditions":[3.7231386E-1,-4.894556E-1,2.961903E-1,8.8782376E-1,8.8782376E-1,-5.872874E-1,-4.2642206E-1,8.958514E-1,8.958514E-1,-2.6592982E-1,2.7813495E-3,-1.223751E0,-1.223751E0,8.958514E-1,8.630675E-1,6.907534E-2,8.630675E-1,1.308247E-1,-1.5678136E0,1.1323267E0,2.7813495E-3,1.0061505E0,1.1323267E0,-1.1805934E0,-1.3603256E0,2.7813495E-3,6.914357E-1,8.8782376E-1,-1.223751E0,6.7118347E-1,1.2765978E-1,7.066584E-2,4.417494E-2,6.9348E-2,-1.3685392E-1,8.500226E-2,4.617807E-2,-7.9634264E-2,-1.0835075E-1,-8.067624E-2,-3.5609704E-2,2.3557028E-2,6.0639363E-2,1.0039305E-1,5.8989722E-2,9.518077E-2,7.1413055E-2,6.153963E-2,4.440744E-2,1.1315932E-1,9.147411E-2,4.7436442E-2,7.4941896E-2,6.398531E-2,1.00984015E-1,9.035359E-2,5.0687965E-2,1.1568969E-1,1.4097676E-1],"split_indices":[4,8,5,5,5,8,2,1,1,4,7,3,3,1,5,9,5,0,3,7,7,5,7,2,5,7,4,5,3,4,0,0,0,0,0,0,0,0,0,0,0,0,0,0,0,0,0,0,0,0,0,0,0,0,0,0,0,0,0],"split_type":[0,0,0,0,0,0,0,0,0,0,0,0,0,0,0,0,0,0,0,0,0,0,0,0,0,0,0,0,0,0,0,0,0,0,0,0,0,0,0,0,0,0,0,0,0,0,0,0,0,0,0,0,0,0,0,0,0,0,0],"sum_hessian":[6.13088E4,4.109875E4,2.0210049E4,7.5922017E3,3.350655E4,1.086071E4,9.349339E3,5.3058003E3,2.2864014E3,3.0425793E4,3.0807566E3,4.3328325E3,6.5278774E3,3.7422834E3,5.6070557E3,2.5985593E3,2.707241E3,1.1053623E3,1.1810391E3,2.195539E4,8.470402E3,1.0384126E3,2.0423439E3,7.019165E2,3.6309163E3,1.0638159E3,5.4640615E3,1.8603291E3,1.8819545E3,2.055208E3,3.5518474E3,1.3520016E3,1.2465577E3,2.705782E3,1.4590273E0,8.1241E1,1.0997981E3,1.1686765E4,1.0268627E4,3.8081775E3,4.6622246E3,1.1556778E2,9.2284485E2,1.0365E3,1.00584393E3,1.1632861E2,5.855879E2,6.6446783E2,2.9664485E3,3.7492798E2,6.8888794E2,1.0526947E3,4.4113667E3,6.421091E2,1.21822E3,3.0219565E2,1.5797588E3,3.7015784E2,1.6850503E3],"tree_param":{"num_deleted":"0","num_feature":"10","num_nodes":"59","size_leaf_vector":"1"}},{"base_weights":[-3.8600892E-3,-3.9871943E-1,7.9433495E-1,6.6832745E-1,-6.432063E-1,6.0103625E-1,1.0270909E0,5.966156E-1,8.3813965E-1,-7.8461576E-1,7.0188665E-1,4.9083823E-1,6.8144095E-1,1.083214E0,9.7256243E-1,6.46101E-1,4.685692E-1,1.2705524E-1,4.532158E-1,-9.053264E-1,7.482189E-1,7.867274E-1,4.9119082E-1,4.3282208E-1,5.986903E-1,7.900132E-1,4.6484783E-1,1.1479608E0,1.0249261E0,1.06059E0,9.2127526E-1,7.837423E-2,6.187296E-2,-2.1348952E-1,4.7887996E-2,7.059874E-2,4.2538565E-2,-1.07274726E-1,-7.5290695E-2,8.150023E-2,6.1019927E-2,7.100284E-2,8.6176716E-2,2.9343775E-2,5.908824E-2,4.3451563E-2,-1.03995405E-1,5.351031E-2,6.8263754E-2,7.008433E-2,9.585852E-2,-5.0935537E-2,6.1742127E-2,9.641534E-2,1.24207236E-1,1.07464075E-1,9.4166026E-2,1.161162E-1,8.576424E-2,8.677227E-2,9.4839275E-2],"categories":[],"categories_nodes":[],"categories_segments":[],"categories_sizes":[],"default_left":[0,0,0,0,0,0,0,0,0,0,0,0,0,0,0,0,0,0,0,0,0,0,0,0,0,0,0,0,0,0,0,0,0,0,0,0,0,0,0,0,0,0,0,0,0,0,0,0,0,0,0,0,0,0,0,0,0,0,0,0,0],"id":11,"left_children":[1,3,5,7,9,11,13,15,17,19,21,23,25,27,29,31,33,-1,35,37,39,41,43,45,47,49,51,53,55,57,59,-1,-1,-1,-1,-1,-1,-1,-1,-1,-1,-1,-1,-1,-1,-1,-1,-1,-1,-1,-1,-1,-1,-1,-1,-1,-1,-1,-1,-1,-1],"loss_changes":[1.8595748E4,1.0298359E4,8.7794824E2,8.911401E1,6.1093037E3,9.420972E1,2.6054688E1,3.250354E1,3.6269348E2,5.377881E3,5.423584E1,2.79281E1,1.4464502E2,1.526416E1,1.9351074E1,1.3573853E1,3.9859955E1,0E0,7.8332825E0,6.866582E2,1.9062744E1,1.191687E1,1.7172668E1,7.7667236E0,8.031616E0,6.1049072E1,3.0672E2,3.4359863E1,8.516602E0,3.270227E1,3.3198242E0,0E0,0E0,0E0,0E0,0E0,0E0,0E0,0E0,0E0,0E0,0E0,0E0,0E0,0E0,0E0,0E0,0E0,0E0,0E0,0E0,0E0,0E0,0E0,0E0,0E0,0E0,0E0,0E0,0E0,0E0],"parents":[2147483647,0,0,1,1,2,2,3,3,4,4,5,5,6,6,7,7,8,8,9,9,10,10,11,11,12,12,13,13,14,14,15,15,16,16,18,18,19,19,20,20,21,21,22,22,23,23,24,24,25,25,26,26,27,27,28,28,29,29,30,30],"right_children":[2,4,6,8,10,12,14,16,18,20,22,24,26,28,30,32,34,-1,36,38,40,42,44,46,48,50,52,54,56,58,60,-1,-1,-1,-1,-1,-1,-1,-1,-1,-1,-1,-1,-1,-1,-1,-1,-1,-1,-1,-1,-1,-1,-1,-1,-1,-1,-1,-1,-1,-1],"split_conditions":[3.7231386E-1,-4.894556E-1,2.961903E-1,8.8782376E-1,8.9150155E-1,-4.894556E-1,8.958514E-1,8.952978E-1,8.958514E-1,8.8782376E-1,8.630675E-1,7.336554E-1,7.612631E-1,-3.125431E-1,8.630675E-1,-1.1075613E0,9.7042465E-1,1.2705524E-1,-1.3411947E0,2.7813495E-3,1.1323267E0,8.958514E-1,2.7813495E-3,1.8238403E-1,-1.1865071E0,1.1323267E0,8.9150155E-1,8.630675E-1,5.9399676E-1,7.612631E-1,-8.726301E-1,7.837423E-2,6.187296E-2,-2.1348952E-1,4.7887996E-2,7.059874E-2,4.2538565E-2,-1.07274726E-1,-7.5290695E-2,8.150023E-2,6.1019927E-2,7.100284E-2,8.6176716E-2,2.9343775E-2,5.908824E-2,4.3451563E-2,-1.03995405E-1,5.351031E-2,6.8263754E-2,7.008433E-2,9.585852E-2,-5.0935537E-2,6.1742127E-2,9.641534E-2,1.24207236E-1,1.07464075E-1,9.4166026E-2,1.161162E-1,8.576424E-2,8.677227E-2,9.4839275E-2],"split_indices":[4,8,5,5,0,8,1,0,1,5,5,0,0,8,5,9,0,0,9,7,7,1,7,5,8,7,0,5,0,0,8,0,0,0,0,0,0,0,0,0,0,0,0,0,0,0,0,0,0,0,0,0,0,0,0,0,0,0,0,0,0],"split_type":[0,0,0,0,0,0,0,0,0,0,0,0,0,0,0,0,0,0,0,0,0,0,0,0,0,0,0,0,0,0,0,0,0,0,0,0,0,0,0,0,0,0,0,0,0,0,0,0,0,0,0,0,0,0,0,0,0,0,0,0,0],"sum_hessian":[5.899938E4,3.947298E4,1.95264E4,7.3579507E3,3.211503E4,1.0669334E4,8.857066E3,5.1764443E3,2.181506E3,2.9060336E4,3.0546936E3,4.503797E3,6.165537E3,4.355416E3,4.5016504E3,3.7306392E3,1.4458054E3,1.0262944E3,1.1552115E3,2.693928E4,2.1210571E3,2.1758225E3,8.7887103E2,2.9317515E3,1.5720452E3,4.1051094E3,2.0604275E3,2.0545312E3,2.3008845E3,1.6499886E3,2.8516614E3,6.142338E2,3.1164053E3,4.8905377E0,1.4409149E3,1.1215752E2,1.0430541E3,1.2835002E4,1.4104276E4,1.426104E3,6.94953E2,1.0811881E3,1.0946343E3,2.9588434E2,5.829867E2,2.9290884E3,2.663158E0,8.986914E2,6.7335376E2,2.6882554E3,1.4168541E3,2.786797E2,1.7817479E3,6.9953326E2,1.3549979E3,1.4332465E3,8.676382E2,1.1001038E3,5.4988495E2,9.696882E2,1.8819733E3],"tree_param":{"num_deleted":"0","num_feature":"10","num_nodes":"61","size_leaf_vector":"1"}},{"base_weights":[-3.7776986E-3,-3.7659383E-1,7.437655E-1,6.215908E-1,-6.1001766E-1,5.9448016E-1,8.424541E-1,7.1268976E-1,5.37339E-1,-7.4661964E-1,6.493978E-1,6.4712566E-1,5.4312915E-1,7.6607525E-1,9.031706E-1,8.1508833E-1,6.148733E-1,5.958315E-1,4.0027788E-1,-9.488015E-1,-5.7455575E-1,6.1739916E-1,7.3882645E-1,7.248406E-1,5.818838E-1,4.1831884E-1,6.2939525E-1,7.3883754E-1,8.328387E-1,9.7860557E-1,7.534988E-1,8.5149825E-2,7.128104E-2,-2.078193E-1,6.2173694E-2,7.060482E-2,5.2162837E-2,3.4792483E-2,6.1384894E-2,-9.975865E-2,-5.4450225E-2,1.5735327E-1,-9.481471E-2,9.6373916E-2,6.0615797E-2,6.235964E-2,7.980844E-2,7.176041E-2,1.03885904E-1,6.576677E-2,4.9756978E-2,3.4318894E-2,5.6219906E-2,7.2552346E-2,4.3967772E-2,7.422099E-2,-2.5714517E-1,8.156477E-2,9.719715E-2,1.0717913E-1,9.2702515E-2,-1.6697338E-2,8.774988E-2],"categories":[],"categories_nodes":[],"categories_segments":[],"categories_sizes":[],"default_left":[0,0,0,0,0,0,0,0,0,0,0,0,0,0,0,0,0,0,0,0,0,0,0,0,0,0,0,0,0,0,0,0,0,0,0,0,0,0,0,0,0,0,0,0,0,0,0,0,0,0,0,0,0,0,0,0,0,0,0,0,0,0,0],"id":12,"left_children":[1,3,5,7,9,11,13,15,17,19,21,23,25,27,29,31,33,35,37,39,41,43,45,47,49,51,53,55,57,59,61,-1,-1,-1,-1,-1,-1,-1,-1,-1,-1,-1,-1,-1,-1,-1,-1,-1,-1,-1,-1,-1,-1,-1,-1,-1,-1,-1,-1,-1,-1,-1,-1],"loss_changes":[1.5803128E4,8.815883E3,2.774922E2,5.4658447E1,5.2759688E3,1.995874E1,5.1976562E1,3.397998E1,2.9662476E1,9.618506E2,8.131714E0,1.8360596E1,4.075232E1,8.543213E0,7.0637695E1,5.6448975E0,3.3911804E1,2.099414E1,1.2294098E1,2.5029492E2,1.1997307E4,8.044617E0,4.867676E0,3.0871582E0,1.2572937E1,1.6668884E1,4.072467E1,4.1939575E1,2.678894E0,1.9193604E1,2.4244006E2,0E0,0E0,0E0,0E0,0E0,0E0,0E0,0E0,0E0,0E0,0E0,0E0,0E0,0E0,0E0,0E0,0E0,0E0,0E0,0E0,0E0,0E0,0E0,0E0,0E0,0E0,0E0,0E0,0E0,0E0,0E0,0E0],"parents":[2147483647,0,0,1,1,2,2,3,3,4,4,5,5,6,6,7,7,8,8,9,9,10,10,11,11,12,12,13,13,14,14,15,15,16,16,17,17,18,18,19,19,20,20,21,21,22,22,23,23,24,24,25,25,26,26,27,27,28,28,29,29,30,30],"right_children":[2,4,6,8,10,12,14,16,18,20,22,24,26,28,30,32,34,36,38,40,42,44,46,48,50,52,54,56,58,60,62,-1,-1,-1,-1,-1,-1,-1,-1,-1,-1,-1,-1,-1,-1,-1,-1,-1,-1,-1,-1,-1,-1,-1,-1,-1,-1,-1,-1,-1,-1,-1,-1],"split_conditions":[3.7231386E-1,-4.894556E-1,-4.2642206E-1,8.958514E-1,8.9150155E-1,8.958514E-1,-4.0890694E-1,-6.175842E-2,8.9150155E-1,2.7813495E-3,1.7596555E0,-3.875475E-1,-5.383715E-1,9.7042465E-1,7.612631E-1,8.952978E-1,4.523778E-2,-8.8465023E-1,5.3192027E-2,5.3192027E-2,1.1323267E0,-1.564674E0,2.7813495E-3,1.9964247E0,6.907534E-2,8.125785E-1,7.612631E-1,8.952978E-1,1.4880127E0,2.7813495E-3,8.9150155E-1,8.5149825E-2,7.128104E-2,-2.078193E-1,6.2173694E-2,7.060482E-2,5.2162837E-2,3.4792483E-2,6.1384894E-2,-9.975865E-2,-5.4450225E-2,1.5735327E-1,-9.481471E-2,9.6373916E-2,6.0615797E-2,6.235964E-2,7.980844E-2,7.176041E-2,1.03885904E-1,6.576677E-2,4.9756978E-2,3.4318894E-2,5.6219906E-2,7.2552346E-2,4.3967772E-2,7.422099E-2,-2.5714517E-1,8.156477E-2,9.719715E-2,1.0717913E-1,9.2702515E-2,-1.6697338E-2,8.774988E-2],"split_indices":[4,8,2,1,0,1,8,9,0,7,0,8,8,0,0,0,9,4,4,4,7,9,7,0,9,0,0,0,2,7,0,0,0,0,0,0,0,0,0,0,0,0,0,0,0,0,0,0,0,0,0,0,0,0,0,0,0,0,0,0,0,0,0],"split_type":[0,0,0,0,0,0,0,0,0,0,0,0,0,0,0,0,0,0,0,0,0,0,0,0,0,0,0,0,0,0,0,0,0,0,0,0,0,0,0,0,0,0,0,0,0,0,0,0,0,0,0,0,0,0,0,0,0,0,0,0,0,0,0],"sum_hessian":[5.6701785E4,3.7833758E4,1.8868027E4,7.1702275E3,3.066353E4,7.511888E3,1.1356138E4,3.4415388E3,3.7286885E3,2.7663434E4,3.0000957E3,3.7034658E3,3.8084224E3,5.035417E3,6.3207207E3,1.6778052E3,1.7637336E3,2.6110452E3,1.1176434E3,1.2716517E4,1.4946918E4,2.2153293E3,7.847664E2,1.6855536E3,2.0179124E3,1.5588777E3,2.2495447E3,3.5849282E3,1.4504889E3,4.1989175E3,2.1218032E3,1.2319261E3,4.4587906E2,3.7165036E0,1.7600172E3,1.0471536E3,1.5638916E3,8.99722E2,2.1792143E2,1.1345981E4,1.370535E3,2.213937E3,1.273298E4,6.697933E1,2.14835E3,2.70428E2,5.1433844E2,1.6507965E3,3.4757046E1,1.0591333E3,9.58779E2,1.0263395E3,5.3253815E2,1.4911619E3,7.5838293E2,3.582055E3,2.8733923E0,1.297085E3,1.5340393E2,1.4890342E3,2.7098833E3,2.5185991E2,1.8699435E3],"tree_param":{"num_deleted":"0","num_feature":"10","num_nodes":"63","size_leaf_vector":"1"}},{"base_weights":[-4.2957705E-3,-3.5510334E-1,6.910038E-1,5.726061E-1,-5.7677263E-1,4.9404642E-1,9.4022024E-1,4.9412444E-1,7.663599E-1,-7.078036E-1,6.154666E-1,3.9247188E-1,5.671924E-1,5.567684E-1,1.2163455E0,5.3240395E-1,3.95211E-1,1.2208324E-1,3.9470583E-1,-8.2710445E-1,6.643627E-1,6.975726E-1,4.0943003E-1,3.7215087E-1,6.179096E-1,6.572091E-1,3.8416588E-1,7.2440374E-1,3.994144E-1,1.1170517E0,1.2373035E0,6.536976E-2,5.022331E-2,-1.8104802E-1,4.0218495E-2,3.37903E-2,5.2801777E-2,-9.2643134E-2,-5.6898296E-2,6.661605E-2,-1.389743E-1,8.08975E-2,5.8926243E-2,5.6394577E-2,2.596677E-2,4.3979183E-2,3.3186805E-2,7.27394E-2,3.9176118E-2,5.747025E-2,8.097157E-2,-4.7556914E-2,5.210023E-2,4.6314172E-2,8.7242745E-2,2.5943518E-2,4.65439E-2,1.2489829E-1,8.815887E-2,1.296853E-1,1.20169595E-1],"categories":[],"categories_nodes":[],"categories_segments":[],"categories_sizes":[],"default_left":[0,0,0,0,0,0,0,0,0,0,0,0,0,0,0,0,0,0,0,0,0,0,0,0,0,0,0,0,0,0,0,0,0,0,0,0,0,0,0,0,0,0,0,0,0,0,0,0,0,0,0,0,0,0,0,0,0,0,0,0,0],"id":13,"left_children":[1,3,5,7,9,11,13,15,17,19,21,23,25,27,29,31,33,-1,35,37,39,41,43,45,47,49,51,53,55,57,59,-1,-1,-1,-1,-1,-1,-1,-1,-1,-1,-1,-1,-1,-1,-1,-1,-1,-1,-1,-1,-1,-1,-1,-1,-1,-1,-1,-1,-1,-1],"loss_changes":[1.3279858E4,7.441919E3,8.9571387E2,1.0575171E2,4.5633457E3,7.5562256E1,8.525625E2,1.860852E1,3.3906482E2,4.3085645E3,4.8650513E1,1.9347534E1,9.740845E1,8.874866E1,8.365234E0,1.2774841E1,2.2119797E1,0E0,8.207169E0,6.2022656E2,8.701416E0,2.4464111E1,1.8984085E1,1.0542419E1,8.426712E0,4.9514038E1,2.3043256E2,6.275293E1,1.5991394E1,2.4578491E1,6.6225586E0,0E0,0E0,0E0,0E0,0E0,0E0,0E0,0E0,0E0,0E0,0E0,0E0,0E0,0E0,0E0,0E0,0E0,0E0,0E0,0E0,0E0,0E0,0E0,0E0,0E0,0E0,0E0,0E0,0E0,0E0],"parents":[2147483647,0,0,1,1,2,2,3,3,4,4,5,5,6,6,7,7,8,8,9,9,10,10,11,11,12,12,13,13,14,14,15,15,16,16,18,18,19,19,20,20,21,21,22,22,23,23,24,24,25,25,26,26,27,27,28,28,29,29,30,30],"right_children":[2,4,6,8,10,12,14,16,18,20,22,24,26,28,30,32,34,-1,36,38,40,42,44,46,48,50,52,54,56,58,60,-1,-1,-1,-1,-1,-1,-1,-1,-1,-1,-1,-1,-1,-1,-1,-1,-1,-1,-1,-1,-1,-1,-1,-1,-1,-1,-1,-1,-1,-1],"split_conditions":[3.7231386E-1,-4.894556E-1,2.961903E-1,8.8782376E-1,8.8782376E-1,-4.894556E-1,-4.2642206E-1,8.952978E-1,8.958514E-1,8.9150155E-1,8.9150155E-1,1.7596555E0,7.612631E-1,8.958514E-1,6.7118347E-1,-1.1503196E0,9.7042465E-1,1.2208324E-1,1.7161106E0,-2.6592982E-1,8.630675E-1,8.958514E-1,8.958514E-1,-4.8443523E-1,-4.0864068E-1,1.1323267E0,8.9150155E-1,8.8782376E-1,-8.970881E-1,7.612631E-1,8.630675E-1,6.536976E-2,5.022331E-2,-1.8104802E-1,4.0218495E-2,3.37903E-2,5.2801777E-2,-9.2643134E-2,-5.6898296E-2,6.661605E-2,-1.389743E-1,8.08975E-2,5.8926243E-2,5.6394577E-2,2.596677E-2,4.3979183E-2,3.3186805E-2,7.27394E-2,3.9176118E-2,5.747025E-2,8.097157E-2,-4.7556914E-2,5.210023E-2,4.6314172E-2,8.7242745E-2,2.5943518E-2,4.65439E-2,1.2489829E-1,8.815887E-2,1.296853E-1,1.20169595E-1],"split_indices":[4,8,5,5,5,8,2,0,1,0,0,0,0,1,4,4,0,0,5,4,5,1,1,2,5,7,0,5,8,0,5,0,0,0,0,0,0,0,0,0,0,0,0,0,0,0,0,0,0,0,0,0,0,0,0,0,0,0,0,0,0],"split_type":[0,0,0,0,0,0,0,0,0,0,0,0,0,0,0,0,0,0,0,0,0,0,0,0,0,0,0,0,0,0,0,0,0,0,0,0,0,0,0,0,0,0,0,0,0,0,0,0,0,0,0,0,0,0,0,0,0,0,0,0,0],"sum_hessian":[5.444231E4,3.6185637E4,1.825667E4,6.97846E3,2.9207178E4,1.0199176E4,8.057494E3,4.9691963E3,2.0092635E3,2.6315432E4,2.8917454E3,4.272506E3,5.92667E3,3.3744514E3,4.6830425E3,3.579534E3,1.3896624E3,9.028907E2,1.1063728E3,2.4210854E4,2.1045774E3,2.0660386E3,8.257067E2,3.9216572E3,3.5084866E2,3.9710327E3,1.9556372E3,1.6321041E3,1.7423474E3,8.25642E2,3.8574006E3,7.0890594E2,2.870628E3,3.5648875E0,1.3860974E3,7.782873E2,3.2808554E2,1.7481332E4,6.7295215E3,2.103412E3,1.1652583E0,1.0152914E3,1.0507473E3,4.0504257E2,4.2066415E2,1.4600665E3,2.4615906E3,2.3490742E2,1.15941246E2,2.5800076E3,1.3910253E3,2.6818317E2,1.6874541E3,5.917656E2,1.0403385E3,5.6000555E2,1.1823419E3,5.263956E2,2.9924643E2,1.4301776E3,2.4272231E3],"tree_param":{"num_deleted":"0","num_feature":"10","num_nodes":"61","size_leaf_vector":"1"}},{"base_weights":[-4.3412913E-3,-3.3478108E-1,6.4649576E-1,5.297424E-1,-5.463781E-1,4.5101926E-1,9.031983E-1,4.528115E-1,7.256951E-1,-6.75681E-1,5.607774E-1,7.1782315E-1,4.0068632E-1,9.7307587E-1,8.376101E-1,4.967053E-1,3.4022072E-1,1.1961522E-1,3.5905865E-1,-7.8979367E-1,6.3451904E-1,6.324739E-1,4.2670768E-1,4.9692538E-1,1.2587385E-1,4.8225766E-1,2.3648672E-1,1.0605901E0,8.9979655E-1,9.759577E-1,8.0284417E-1,5.3354677E-2,4.0055543E-2,-1.6839185E-1,3.471124E-2,3.252012E-2,6.497729E-2,-9.2192434E-2,-5.636288E-2,7.4737854E-2,5.239072E-2,5.570797E-2,7.043449E-2,-2.1202795E-1,4.3741766E-2,6.982118E-2,3.8952958E-2,3.2242905E-2,5.9879746E-2,-2.5012374E-2,2.994966E-2,8.3753966E-2,1.1802631E-1,9.500657E-2,8.153283E-2,8.95645E-2,1.16203085E-1,6.6374384E-2,8.328382E-2],"categories":[],"categories_nodes":[],"categories_segments":[],"categories_sizes":[],"default_left":[0,0,0,0,0,0,0,0,0,0,0,0,0,0,0,0,0,0,0,0,0,0,0,0,0,0,0,0,0,0,0,0,0,0,0,0,0,0,0,0,0,0,0,0,0,0,0,0,0,0,0,0,0,0,0,0,0,0,0],"id":14,"left_children":[1,3,5,7,9,11,13,15,17,19,21,23,25,27,29,31,33,-1,35,37,39,41,43,45,-1,47,49,51,53,55,57,-1,-1,-1,-1,-1,-1,-1,-1,-1,-1,-1,-1,-1,-1,-1,-1,-1,-1,-1,-1,-1,-1,-1,-1,-1,-1,-1,-1],"loss_changes":[1.1266523E4,6.356412E3,8.848115E2,1.0267175E2,3.9965723E3,1.3422925E2,3.4132324E1,2.4091553E1,3.315351E2,3.737628E3,2.779541E1,1.8918207E2,1.127887E2,2.2682373E1,1.8169678E1,1.2290222E1,1.9837341E1,0E0,1.0449158E1,6.8660645E2,2.4615051E1,9.904663E0,2.876233E1,2.4146088E1,0E0,1.0468652E2,8.5916245E1,4.369873E1,7.771118E0,1.07161255E1,1.2609497E1,0E0,0E0,0E0,0E0,0E0,0E0,0E0,0E0,0E0,0E0,0E0,0E0,0E0,0E0,0E0,0E0,0E0,0E0,0E0,0E0,0E0,0E0,0E0,0E0,0E0,0E0,0E0,0E0],"parents":[2147483647,0,0,1,1,2,2,3,3,4,4,5,5,6,6,7,7,8,8,9,9,10,10,11,11,12,12,13,13,14,14,15,15,16,16,18,18,19,19,20,20,21,21,22,22,23,23,25,25,26,26,27,27,28,28,29,29,30,30],"right_children":[2,4,6,8,10,12,14,16,18,20,22,24,26,28,30,32,34,-1,36,38,40,42,44,46,-1,48,50,52,54,56,58,-1,-1,-1,-1,-1,-1,-1,-1,-1,-1,-1,-1,-1,-1,-1,-1,-1,-1,-1,-1,-1,-1,-1,-1,-1,-1,-1,-1],"split_conditions":[3.7231386E-1,-4.894556E-1,2.961903E-1,8.8782376E-1,8.9150155E-1,-1.223751E0,8.958514E-1,8.952978E-1,8.958514E-1,8.8782376E-1,5.4104465E-1,8.9150155E-1,7.612631E-1,-3.549369E-1,-1.1134807E0,-9.419277E-1,9.7042465E-1,1.1961522E-1,1.9527639E0,1.6140503E-1,8.958514E-1,8.958514E-1,6.511704E-1,2.7813495E-3,1.2587385E-1,-4.894556E-1,8.9150155E-1,8.630675E-1,5.9399676E-1,8.9150155E-1,6.914357E-1,5.3354677E-2,4.0055543E-2,-1.6839185E-1,3.471124E-2,3.252012E-2,6.497729E-2,-9.2192434E-2,-5.636288E-2,7.4737854E-2,5.239072E-2,5.570797E-2,7.043449E-2,-2.1202795E-1,4.3741766E-2,6.982118E-2,3.8952958E-2,3.2242905E-2,5.9879746E-2,-2.5012374E-2,2.994966E-2,8.3753966E-2,1.1802631E-1,9.500657E-2,8.153283E-2,8.95645E-2,1.16203085E-1,6.6374384E-2,8.328382E-2],"split_indices":[4,8,5,5,0,3,1,0,1,5,5,0,0,8,3,8,0,0,5,9,1,1,5,7,0,8,0,5,0,0,4,0,0,0,0,0,0,0,0,0,0,0,0,0,0,0,0,0,0,0,0,0,0,0,0,0,0,0,0],"split_type":[0,0,0,0,0,0,0,0,0,0,0,0,0,0,0,0,0,0,0,0,0,0,0,0,0,0,0,0,0,0,0,0,0,0,0,0,0,0,0,0,0,0,0,0,0,0,0,0,0,0,0,0,0,0,0,0,0,0,0],"sum_hessian":[5.238521E4,3.474509E4,1.7640121E4,6.831613E3,2.7913477E4,1.0015883E4,7.624239E3,4.9080327E3,1.9235803E3,2.4994768E4,2.9187095E3,1.5875208E3,8.428362E3,3.6847136E3,3.939525E3,3.5288792E3,1.3791536E3,8.4151294E2,1.0820674E3,2.299261E4,2.0021582E3,1.899302E3,1.01940735E3,1.1285605E3,4.589602E2,5.629696E3,2.7986663E3,1.6731139E3,2.0115997E3,7.85728E2,3.1537969E3,2.5480146E3,9.8086444E2,3.8540533E0,1.3752996E3,9.710899E2,1.1097744E2,1.4511554E4,8.481056E3,9.88161E2,1.0139972E3,9.3120215E2,9.680999E2,3.443829E0,1.0159635E3,3.907315E2,7.3782904E2,2.3755337E3,3.254162E3,3.2050583E2,2.4781604E3,5.870144E2,1.0860995E3,1.2546682E3,7.569315E2,5.528996E2,2.3282843E2,5.63524E2,2.590273E3],"tree_param":{"num_deleted":"0","num_feature":"10","num_nodes":"59","size_leaf_vector":"1"}},{"base_weights":[-3.6317643E-3,-3.8983476E-1,5.004386E-1,-5.334078E-1,5.71085E-1,3.1965202E-1,7.565768E-1,-6.5318644E-1,4.2258635E-1,5.8758426E-1,-3.371588E-1,5.859459E-1,1.3277113E-1,4.49989E-1,9.823034E-1,-4.8236623E-1,-8.6053693E-1,4.3435988E-1,-2.856811E-1,8.371342E-1,3.764731E-1,1.5305412E0,4.2951572E-1,-5.0025743E-1,3.9619523E-1,6.270941E-1,2.935117E-1,2.7813324E-1,1.1696225E0,-8.5342824E-2,1.3044457E-1,-9.822746E-2,-6.5410964E-2,3.7589964E-2,4.913143E-2,6.279284E-2,9.45901E-2,4.630074E-2,1.5013781E-2,1.3876703E-1,1.8524879E-1,4.3227457E-2,-1.9022165E-1,-8.383111E-2,5.9916493E-2,2.0929731E-2,4.3978713E-2,3.433218E-2,8.083944E-2,3.873004E-2,2.2037726E-2,9.9819325E-2,-1.1072222E-2,1.0596515E-1,1.1931919E-1],"categories":[],"categories_nodes":[],"categories_segments":[],"categories_sizes":[],"default_left":[0,0,0,0,0,0,0,0,0,0,0,0,0,0,0,0,0,0,0,0,0,0,0,0,0,0,0,0,0,0,0,0,0,0,0,0,0,0,0,0,0,0,0,0,0,0,0,0,0,0,0,0,0,0,0],"id":15,"left_children":[1,3,5,7,9,11,13,15,17,19,-1,21,23,25,27,29,31,33,-1,35,37,39,41,43,45,47,49,51,53,-1,-1,-1,-1,-1,-1,-1,-1,-1,-1,-1,-1,-1,-1,-1,-1,-1,-1,-1,-1,-1,-1,-1,-1,-1,-1],"loss_changes":[9.791727E3,3.9292886E3,1.01014014E3,2.8374624E3,2.4282812E2,6.3656714E2,6.243086E2,7.794873E2,1.0777997E2,1.9397095E2,0E0,7.788363E2,1.2539753E3,1.0595514E2,6.853921E2,8.007201E3,2.4926807E2,8.972839E0,0E0,3.784424E1,3.90943E1,3.1885986E1,2.9945068E1,8.2181116E2,4.316858E1,9.2106445E1,1.3874939E1,3.0632764E2,9.37793E0,0E0,0E0,0E0,0E0,0E0,0E0,0E0,0E0,0E0,0E0,0E0,0E0,0E0,0E0,0E0,0E0,0E0,0E0,0E0,0E0,0E0,0E0,0E0,0E0,0E0,0E0],"parents":[2147483647,0,0,1,1,2,2,3,3,4,4,5,5,6,6,7,7,8,8,9,9,11,11,12,12,13,13,14,14,15,15,16,16,17,17,19,19,20,20,21,21,22,22,23,23,24,24,25,25,26,26,27,27,28,28],"right_children":[2,4,6,8,10,12,14,16,18,20,-1,22,24,26,28,30,32,34,-1,36,38,40,42,44,46,48,50,52,54,-1,-1,-1,-1,-1,-1,-1,-1,-1,-1,-1,-1,-1,-1,-1,-1,-1,-1,-1,-1,-1,-1,-1,-1,-1,-1],"split_conditions":[5.3192027E-2,8.8782376E-1,2.961903E-1,8.9150155E-1,-1.8938793E-1,-6.0819103E-3,-4.2642206E-1,1.1323267E0,-1.8938793E-1,8.958514E-1,-3.371588E-1,3.7231386E-1,3.7231386E-1,8.958514E-1,3.7231386E-1,2.7813495E-3,1.6140503E-1,8.958514E-1,-2.856811E-1,2.7813495E-3,8.952978E-1,1.1323267E0,1.8238403E-1,8.9150155E-1,6.914357E-1,8.8782376E-1,-6.0819103E-3,-6.0819103E-3,6.7118347E-1,-8.5342824E-2,1.3044457E-1,-9.822746E-2,-6.5410964E-2,3.7589964E-2,4.913143E-2,6.279284E-2,9.45901E-2,4.630074E-2,1.5013781E-2,1.3876703E-1,1.8524879E-1,4.3227457E-2,-1.9022165E-1,-8.383111E-2,5.9916493E-2,2.0929731E-2,4.3978713E-2,3.433218E-2,8.083944E-2,3.873004E-2,2.2037726E-2,9.9819325E-2,-1.1072222E-2,1.0596515E-1,1.1931919E-1],"split_indices":[4,5,5,0,4,0,2,7,4,1,0,4,4,1,4,7,9,1,0,7,0,7,5,0,4,5,0,0,4,0,0,0,0,0,0,0,0,0,0,0,0,0,0,0,0,0,0,0,0,0,0,0,0,0,0],"split_type":[0,0,0,0,0,0,0,0,0,0,0,0,0,0,0,0,0,0,0,0,0,0,0,0,0,0,0,0,0,0,0,0,0,0,0,0,0,0,0,0,0,0,0,0,0,0,0,0,0,0,0,0,0,0,0],"sum_hessian":[5.0296203E4,2.8477701E4,2.1818502E4,2.4776271E4,3.7014304E3,1.2791967E4,9.026534E3,2.2017916E4,2.7583557E3,3.6868525E3,1.4577704E1,5.274289E3,7.5176777E3,3.8289487E3,5.197585E3,1.207422E4,9.943696E3,2.7493525E3,9.003053E0,1.688247E3,1.9986057E3,7.4810626E2,4.526183E3,2.2088179E3,5.30886E3,1.7946779E3,2.0342709E3,1.0926355E3,4.1049497E3,9.998402E3,2.0758167E3,6.2525693E3,3.6911265E3,1.360491E3,1.3888616E3,5.7980444E2,1.1084425E3,1.4450696E3,5.5353613E2,5.2183905E2,2.2626718E2,4.5216475E3,4.5352597E0,1.6895482E3,5.192697E2,1.00514655E3,4.3037134E3,7.0075116E2,1.0939268E3,8.893979E2,1.144873E3,3.825972E2,7.1003827E2,7.326167E2,3.372333E3],"tree_param":{"num_deleted":"0","num_feature":"10","num_nodes":"55","size_leaf_vector":"1"}},{"base_weights":[-4.7626067E-3,-3.6712795E-1,4.6418008E-1,4.6240142E-1,-5.656934E-1,2.933676E-1,7.125161E-1,4.79373E-1,-2.8888497E-1,-6.783871E-1,4.3453258E-1,5.281289E-1,1.273149E-1,4.0207636E-1,9.513017E-1,5.4429454E-1,3.1014323E-1,-7.808872E-1,5.374203E-1,4.4928384E-1,-2.4822421E-1,1.3739438E0,3.8634664E-1,-4.6721774E-1,3.6956295E-1,5.719083E-1,2.5798714E-1,2.767781E-1,1.1453217E0,4.9464706E-2,6.78074E-2,2.2593923E-2,5.27151E-2,-5.4344237E-2,-9.203692E-2,5.5193026E-2,-2.3047133E-1,5.331872E-2,2.6466638E-2,3.7675925E-2,2.1075618E-1,2.3013514E-2,5.0179362E-2,-7.8573585E-2,5.5458307E-2,8.599736E-2,2.8201526E-2,2.7947364E-2,7.664488E-2,7.0272915E-2,1.7815927E-2,9.334219E-2,-6.4932997E-3,1.0222893E-1,1.1719748E-1],"categories":[],"categories_nodes":[],"categories_segments":[],"categories_sizes":[],"default_left":[0,0,0,0,0,0,0,0,0,0,0,0,0,0,0,0,0,0,0,0,0,0,0,0,0,0,0,0,0,0,0,0,0,0,0,0,0,0,0,0,0,0,0,0,0,0,0,0,0,0,0,0,0,0,0],"id":16,"left_children":[1,3,5,7,9,11,13,15,-1,17,19,21,23,25,27,29,31,33,35,37,-1,39,41,43,45,47,49,51,53,-1,-1,-1,-1,-1,-1,-1,-1,-1,-1,-1,-1,-1,-1,-1,-1,-1,-1,-1,-1,-1,-1,-1,-1,-1,-1],"loss_changes":[8.21765E3,4.4936533E3,8.939712E2,3.0108313E2,2.4813945E3,4.8686597E2,6.363662E2,5.7441162E1,0E0,2.4657666E3,9.7040375E1,6.200104E2,1.0540614E3,9.128314E1,6.349951E2,2.482666E1,2.6489716E1,6.0376465E2,6.47283E1,3.4232697E1,0E0,5.4237134E2,7.983118E1,6.9003735E2,2.2299847E2,9.7303406E1,7.170282E1,2.4368198E2,1.1163574E1,0E0,0E0,0E0,0E0,0E0,0E0,0E0,0E0,0E0,0E0,0E0,0E0,0E0,0E0,0E0,0E0,0E0,0E0,0E0,0E0,0E0,0E0,0E0,0E0,0E0,0E0],"parents":[2147483647,0,0,1,1,2,2,3,3,4,4,5,5,6,6,7,7,9,9,10,10,11,11,12,12,13,13,14,14,15,15,16,16,17,17,18,18,19,19,21,21,22,22,23,23,24,24,25,25,26,26,27,27,28,28],"right_children":[2,4,6,8,10,12,14,16,-1,18,20,22,24,26,28,30,32,34,36,38,-1,40,42,44,46,48,50,52,54,-1,-1,-1,-1,-1,-1,-1,-1,-1,-1,-1,-1,-1,-1,-1,-1,-1,-1,-1,-1,-1,-1,-1,-1,-1,-1],"split_conditions":[5.3192027E-2,-4.894556E-1,2.961903E-1,-1.8938793E-1,8.9150155E-1,-6.0819103E-3,-4.2642206E-1,8.952978E-1,-2.8888497E-1,8.8782376E-1,-1.8938793E-1,3.7231386E-1,3.7231386E-1,8.958514E-1,3.7231386E-1,8.8782376E-1,8.8782376E-1,8.958514E-1,-1.8938793E-1,6.560857E-1,-2.4822421E-1,-4.894556E-1,-4.894556E-1,8.9150155E-1,-1.223751E0,8.8782376E-1,-1.223751E0,-6.0819103E-3,6.7118347E-1,4.9464706E-2,6.78074E-2,2.2593923E-2,5.27151E-2,-5.4344237E-2,-9.203692E-2,5.5193026E-2,-2.3047133E-1,5.331872E-2,2.6466638E-2,3.7675925E-2,2.1075618E-1,2.3013514E-2,5.0179362E-2,-7.8573585E-2,5.5458307E-2,8.599736E-2,2.8201526E-2,2.7947364E-2,7.664488E-2,7.0272915E-2,1.7815927E-2,9.334219E-2,-6.4932997E-3,1.0222893E-1,1.1719748E-1],"split_indices":[4,8,5,4,0,0,2,0,0,5,4,4,4,1,4,5,5,1,4,5,0,8,8,0,3,5,3,0,4,0,0,0,0,0,0,0,0,0,0,0,0,0,0,0,0,0,0,0,0,0,0,0,0,0,0],"split_type":[0,0,0,0,0,0,0,0,0,0,0,0,0,0,0,0,0,0,0,0,0,0,0,0,0,0,0,0,0,0,0,0,0,0,0,0,0,0,0,0,0,0,0,0,0,0,0,0,0,0,0,0,0,0,0],"sum_hessian":[4.835743E4,2.7278656E4,2.1078775E4,5.268322E3,2.2010334E4,1.248999E4,8.588785E3,5.242629E3,2.5693064E1,1.9781867E4,2.2284668E3,5.1735576E3,7.316433E3,3.735295E3,4.8534897E3,3.78744E3,1.4551888E3,1.8244133E4,1.5377354E3,2.218095E3,1.0371786E1,7.414831E2,4.432074E3,2.117839E3,5.1985938E3,1.7131305E3,2.0221646E3,1.0847415E3,3.7687483E3,2.765734E3,1.02170593E3,1.0498601E3,4.0532874E2,6.753064E3,1.1491068E4,1.5307263E3,7.009011E0,1.5237197E3,6.9437537E2,3.1492657E2,4.2655652E2,1.8847755E3,2.547299E3,1.6147244E3,5.0311456E2,7.8613385E2,4.41246E3,6.8534766E2,1.0277828E3,3.06541E2,1.7156235E3,3.7068628E2,7.140551E2,6.7807324E2,3.090675E3],"tree_param":{"num_deleted":"0","num_feature":"10","num_nodes":"55","size_leaf_vector":"1"}},{"base_weights":[-5.626487E-3,-3.4981275E-1,4.3169785E-1,4.1607141E-1,-5.3878254E-1,2.7245966E-1,6.6989714E-1,4.3169674E-1,-2.418121E-1,-6.4787173E-1,4.4104204E-1,4.8286754E-1,1.21546626E-1,3.635008E-1,9.169901E-1,3.702901E-1,5.9990585E-1,-7.4847287E-1,4.6784195E-1,4.5637262E-1,-2.2678657E-1,1.212055E0,3.5579956E-1,-4.486742E-1,3.4872538E-1,7.152764E-1,2.9771316E-1,2.41074E-1,1.1265938E0,4.342731E-2,2.0251255E-2,5.6651574E-2,7.0003174E-2,-5.7890564E-2,-9.426493E-2,4.8072647E-2,-1.8928194E-1,5.2655447E-2,2.8411537E-2,3.130618E-2,1.8406451E-1,2.2195498E-2,4.499965E-2,-7.489276E-2,4.9855947E-2,8.1026174E-2,2.6983574E-2,5.1955212E-2,1.20377734E-1,4.4634406E-2,1.7155072E-2,8.6299695E-2,-7.2185346E-3,1.00577E-1,1.15328625E-1],"categories":[],"categories_nodes":[],"categories_segments":[],"categories_sizes":[],"default_left":[0,0,0,0,0,0,0,0,0,0,0,0,0,0,0,0,0,0,0,0,0,0,0,0,0,0,0,0,0,0,0,0,0,0,0,0,0,0,0,0,0,0,0,0,0,0,0,0,0,0,0,0,0,0,0],"id":17,"left_children":[1,3,5,7,9,11,13,15,-1,17,19,21,23,25,27,29,31,33,35,37,-1,39,41,43,45,47,49,51,53,-1,-1,-1,-1,-1,-1,-1,-1,-1,-1,-1,-1,-1,-1,-1,-1,-1,-1,-1,-1,-1,-1,-1,-1,-1,-1],"loss_changes":[7.016903E3,3.7757058E3,7.7856177E2,2.296977E2,2.236855E3,3.9071637E2,6.2238696E2,5.2825806E1,0E0,2.1137026E3,8.811459E1,4.7580103E2,9.2869275E2,8.480417E1,6.447185E2,4.032782E1,4.18985E0,5.681387E2,4.829547E1,2.5067108E1,0E0,4.3021167E2,5.5102478E1,5.812954E2,1.8643164E2,5.464505E1,5.7989075E1,2.1025354E2,1.0046387E1,0E0,0E0,0E0,0E0,0E0,0E0,0E0,0E0,0E0,0E0,0E0,0E0,0E0,0E0,0E0,0E0,0E0,0E0,0E0,0E0,0E0,0E0,0E0,0E0,0E0,0E0],"parents":[2147483647,0,0,1,1,2,2,3,3,4,4,5,5,6,6,7,7,9,9,10,10,11,11,12,12,13,13,14,14,15,15,16,16,17,17,18,18,19,19,21,21,22,22,23,23,24,24,25,25,26,26,27,27,28,28],"right_children":[2,4,6,8,10,12,14,16,-1,18,20,22,24,26,28,30,32,34,36,38,-1,40,42,44,46,48,50,52,54,-1,-1,-1,-1,-1,-1,-1,-1,-1,-1,-1,-1,-1,-1,-1,-1,-1,-1,-1,-1,-1,-1,-1,-1,-1,-1],"split_conditions":[5.3192027E-2,-4.894556E-1,2.961903E-1,-1.8938793E-1,8.8782376E-1,-6.0819103E-3,-4.2642206E-1,8.8782376E-1,-2.418121E-1,8.9150155E-1,-1.8938793E-1,3.7231386E-1,3.7231386E-1,-1.223751E0,3.7231386E-1,8.952978E-1,-2.6592982E-1,1.1323267E0,-1.8938793E-1,8.9150155E-1,-2.2678657E-1,-4.894556E-1,-5.383715E-1,8.9150155E-1,-1.223751E0,8.9150155E-1,4.4432573E-2,-6.0819103E-3,6.7118347E-1,4.342731E-2,2.0251255E-2,5.6651574E-2,7.0003174E-2,-5.7890564E-2,-9.426493E-2,4.8072647E-2,-1.8928194E-1,5.2655447E-2,2.8411537E-2,3.130618E-2,1.8406451E-1,2.2195498E-2,4.499965E-2,-7.489276E-2,4.9855947E-2,8.1026174E-2,2.6983574E-2,5.1955212E-2,1.20377734E-1,4.4634406E-2,1.7155072E-2,8.6299695E-2,-7.2185346E-3,1.00577E-1,1.15328625E-1],"split_indices":[4,8,5,4,5,0,2,5,0,0,4,4,4,3,4,0,4,7,4,0,0,8,8,0,3,0,0,0,4,0,0,0,0,0,0,0,0,0,0,0,0,0,0,0,0,0,0,0,0,0,0,0,0,0,0],"split_type":[0,0,0,0,0,0,0,0,0,0,0,0,0,0,0,0,0,0,0,0,0,0,0,0,0,0,0,0,0,0,0,0,0,0,0,0,0,0,0,0,0,0,0,0,0,0,0,0,0,0,0,0,0,0,0],"sum_hessian":[4.6615426E4,2.6085566E4,2.0529857E4,5.1622104E3,2.0923357E4,1.23056045E4,8.224253E3,5.1347495E3,2.7460957E1,1.8827523E4,2.0958325E3,5.1387676E3,7.166837E3,3.672638E3,4.551615E3,3.7638975E3,1.370852E3,1.7270605E4,1.5569185E3,2.084865E3,1.0967384E1,7.6132404E2,4.3774434E3,2.0415505E3,5.1252866E3,5.7707355E2,3.0955645E3,1.0778822E3,3.4737327E3,2.7236348E3,1.0402627E3,1.0330177E3,3.3783432E2,9.221652E3,8.048953E3,1.549259E3,7.659504E0,1.4798718E3,6.049932E2,3.1389612E2,4.4742792E2,1.8095735E3,2.56787E3,1.5503357E3,4.9121484E2,7.468194E2,4.3784673E3,4.1347348E2,1.6360007E2,1.4200629E3,1.6755016E3,3.6047192E2,7.1741034E2,6.3555524E2,2.8381775E3],"tree_param":{"num_deleted":"0","num_feature":"10","num_nodes":"55","size_leaf_vector":"1"}},{"base_weights":[-9.026683E-4,-3.2507366E-1,4.060021E-1,3.9555302E-1,-5.073631E-1,2.5312907E-1,6.4073753E-1,4.099759E-1,-2.1252005E-1,-6.121228E-1,4.0123367E-1,4.407452E-1,1.1693227E-1,3.4767762E-1,8.886817E-1,3.5634524E-1,5.585805E-1,-7.120978E-1,4.4048876E-1,4.1720653E-1,-2.0123671E-1,1.0986954E0,3.2432166E-1,-4.2654726E-1,3.289009E-1,5.190446E-1,2.0457831E-1,2.3863862E-1,1.1044523E0,4.254118E-2,2.3233417E-2,1.1387807E-1,1.7270101E-2,-9.259189E-2,-5.2258432E-2,4.5121454E-2,-1.707417E-1,4.934716E-2,2.314853E-2,3.208894E-2,1.6023423E-1,1.9328915E-2,4.1690048E-2,-7.078397E-2,4.5110647E-2,1.1709864E-2,3.7998285E-2,7.829524E-2,3.0461965E-2,3.172091E-2,1.2434331E-2,8.533186E-2,-6.810657E-3,9.5995724E-2,1.1369183E-1],"categories":[],"categories_nodes":[],"categories_segments":[],"categories_sizes":[],"default_left":[0,0,0,0,0,0,0,0,0,0,0,0,0,0,0,0,0,0,0,0,0,0,0,0,0,0,0,0,0,0,0,0,0,0,0,0,0,0,0,0,0,0,0,0,0,0,0,0,0,0,0,0,0,0,0],"id":18,"left_children":[1,3,5,7,9,11,13,15,-1,17,19,21,23,25,27,29,31,33,35,37,-1,39,41,43,45,47,49,51,53,-1,-1,-1,-1,-1,-1,-1,-1,-1,-1,-1,-1,-1,-1,-1,-1,-1,-1,-1,-1,-1,-1,-1,-1,-1,-1],"loss_changes":[5.9360005E3,3.2904521E3,7.15896E2,1.8473724E2,1.9030547E3,3.0877924E2,5.715E2,3.988385E1,0E0,1.8866035E3,8.053549E1,3.8901068E2,8.070013E2,8.837607E1,5.975491E2,3.1578003E1,2.9801575E2,6.628672E2,3.6603394E1,2.898529E1,0E0,2.9869513E2,5.232788E1,4.8559476E2,5.4477173E1,9.263895E1,1.7744583E1,2.0057303E2,1.3919189E1,0E0,0E0,0E0,0E0,0E0,0E0,0E0,0E0,0E0,0E0,0E0,0E0,0E0,0E0,0E0,0E0,0E0,0E0,0E0,0E0,0E0,0E0,0E0,0E0,0E0,0E0],"parents":[2147483647,0,0,1,1,2,2,3,3,4,4,5,5,6,6,7,7,9,9,10,10,11,11,12,12,13,13,14,14,15,15,16,16,17,17,18,18,19,19,21,21,22,22,23,23,24,24,25,25,26,26,27,27,28,28],"right_children":[2,4,6,8,10,12,14,16,-1,18,20,22,24,26,28,30,32,34,36,38,-1,40,42,44,46,48,50,52,54,-1,-1,-1,-1,-1,-1,-1,-1,-1,-1,-1,-1,-1,-1,-1,-1,-1,-1,-1,-1,-1,-1,-1,-1,-1,-1],"split_conditions":[5.3192027E-2,-4.894556E-1,2.961903E-1,-1.8938793E-1,8.8782376E-1,-6.0819103E-3,-4.2642206E-1,8.8782376E-1,-2.1252005E-1,8.9150155E-1,-1.8938793E-1,3.7231386E-1,3.7231386E-1,8.958514E-1,3.7231386E-1,5.9399676E-1,8.958514E-1,2.7813495E-3,-1.8938793E-1,8.9150155E-1,-2.0123671E-1,-4.894556E-1,-5.383715E-1,8.9150155E-1,6.914357E-1,-3.125431E-1,-1.2838404E-1,-6.0819103E-3,6.7118347E-1,4.254118E-2,2.3233417E-2,1.1387807E-1,1.7270101E-2,-9.259189E-2,-5.2258432E-2,4.5121454E-2,-1.707417E-1,4.934716E-2,2.314853E-2,3.208894E-2,1.6023423E-1,1.9328915E-2,4.1690048E-2,-7.078397E-2,4.5110647E-2,1.1709864E-2,3.7998285E-2,7.829524E-2,3.0461965E-2,3.172091E-2,1.2434331E-2,8.533186E-2,-6.810657E-3,9.5995724E-2,1.1369183E-1],"split_indices":[4,8,5,4,5,0,2,5,0,0,4,4,4,1,4,0,1,7,4,0,0,8,8,0,4,8,0,0,4,0,0,0,0,0,0,0,0,0,0,0,0,0,0,0,0,0,0,0,0,0,0,0,0,0,0],"split_type":[0,0,0,0,0,0,0,0,0,0,0,0,0,0,0,0,0,0,0,0,0,0,0,0,0,0,0,0,0,0,0,0,0,0,0,0,0,0,0,0,0,0,0,0,0,0,0,0,0,0,0,0,0,0,0],"sum_hessian":[4.49995E4,2.5046096E4,1.9953404E4,5.0563105E3,1.9989785E4,1.2085026E4,7.868378E3,5.0283774E3,2.793323E1,1.7923555E4,2.0662302E3,5.082062E3,7.002965E3,3.6072073E3,4.2611704E3,3.697402E3,1.3309753E3,1.6369165E4,1.5543892E3,2.0534678E3,1.2762384E1,7.627962E2,4.3192656E3,1.9646539E3,5.038311E3,1.6402805E3,1.9669269E3,1.0624568E3,3.1987136E3,2.3732292E3,1.3241729E3,5.308498E2,8.0012555E2,7.689502E3,8.679663E3,1.5474517E3,6.9374166E0,1.4545221E3,5.9894574E2,3.0044373E2,4.6235248E2,1.7895266E3,2.529739E3,1.4879515E3,4.7670248E2,9.796511E2,4.0586597E3,7.341094E2,9.061711E2,8.1704175E2,1.149885E3,3.5310187E2,7.093549E2,5.924577E2,2.6062559E3],"tree_param":{"num_deleted":"0","num_feature":"10","num_nodes":"55","size_leaf_vector":"1"}},{"base_weights":[-7.918598E-3,-3.1476E-1,3.722445E-1,3.491014E-1,-4.873477E-1,8.911848E-2,4.5535117E-1,3.6289832E-1,-1.9156362E-1,-5.891467E-1,3.2965094E-1,9.005478E-1,-2.709334E-1,6.7402285E-1,4.1577792E-1,4.1369247E-1,2.3299149E-1,-3.2004517E-1,-7.5904715E-1,3.4107995E-1,-1.7697413E-1,3.1542024E-1,1.2751485E0,-5.896061E-1,5.035208E-1,4.907231E-1,1.1622091E-1,4.771371E-1,2.943112E-1,5.038497E-2,3.6575124E-2,-1.8209992E-1,2.3987051E-2,-7.6507665E-2,1.7174867E-1,-5.891729E-2,-9.542374E-2,3.1091964E-2,4.9782883E-2,4.74475E-2,1.7410778E-2,1.429753E-1,1.1236813E-1,6.1591264E-2,-7.9890065E-2,1.24468304E-1,3.573806E-2,6.43124E-2,3.923894E-2,-2.1642788E-1,4.8015703E-2,-3.235003E-2,3.7163E-2],"categories":[],"categories_nodes":[],"categories_segments":[],"categories_sizes":[],"default_left":[0,0,0,0,0,0,0,0,0,0,0,0,0,0,0,0,0,0,0,0,0,0,0,0,0,0,0,0,0,0,0,0,0,0,0,0,0,0,0,0,0,0,0,0,0,0,0,0,0,0,0,0,0],"id":19,"left_children":[1,3,5,7,9,11,13,15,-1,17,19,21,23,25,27,29,31,33,35,37,-1,39,41,43,45,47,-1,49,51,-1,-1,-1,-1,-1,-1,-1,-1,-1,-1,-1,-1,-1,-1,-1,-1,-1,-1,-1,-1,-1,-1,-1,-1],"loss_changes":[5.066106E3,2.7536873E3,4.5637524E2,1.55656E2,1.5865938E3,1.2866029E3,1.2948389E2,3.243512E1,0E0,7.7523486E2,5.1326614E1,2.96265E2,7.531527E2,2.0491162E2,9.451538E1,1.5129456E1,2.005024E1,5.955142E3,3.441548E2,9.789154E0,0E0,1.1821278E1,1.7709473E1,5.458991E2,9.593625E1,2.4792236E1,0E0,6.8333496E1,2.038522E2,0E0,0E0,0E0,0E0,0E0,0E0,0E0,0E0,0E0,0E0,0E0,0E0,0E0,0E0,0E0,0E0,0E0,0E0,0E0,0E0,0E0,0E0,0E0,0E0],"parents":[2147483647,0,0,1,1,2,2,3,3,4,4,5,5,6,6,7,7,9,9,10,10,11,11,12,12,13,13,14,14,15,15,16,16,17,17,18,18,19,19,21,21,22,22,23,23,24,24,25,25,27,27,28,28],"right_children":[2,4,6,8,10,12,14,16,-1,18,20,22,24,26,28,30,32,34,36,38,-1,40,42,44,46,48,-1,50,52,-1,-1,-1,-1,-1,-1,-1,-1,-1,-1,-1,-1,-1,-1,-1,-1,-1,-1,-1,-1,-1,-1,-1,-1],"split_conditions":[5.3192027E-2,-4.894556E-1,3.7231386E-1,-1.8938793E-1,8.9150155E-1,-6.0819103E-3,-1.223751E0,8.952978E-1,-1.9156362E-1,8.958514E-1,-1.8938793E-1,-4.894556E-1,8.9150155E-1,8.9150155E-1,7.612631E-1,2.7813495E-3,9.7042465E-1,1.6140503E-1,1.1323267E0,1.3230776E0,-1.7697413E-1,8.958514E-1,6.907534E-2,-4.894556E-1,-1.223751E0,-1.5678136E0,1.1622091E-1,-1.1270995E0,8.9150155E-1,5.038497E-2,3.6575124E-2,-1.8209992E-1,2.3987051E-2,-7.6507665E-2,1.7174867E-1,-5.891729E-2,-9.542374E-2,3.1091964E-2,4.9782883E-2,4.74475E-2,1.7410778E-2,1.429753E-1,1.1236813E-1,6.1591264E-2,-7.9890065E-2,1.24468304E-1,3.573806E-2,6.43124E-2,3.923894E-2,-2.1642788E-1,4.8015703E-2,-3.235003E-2,3.7163E-2],"split_indices":[4,8,4,4,0,0,3,0,0,1,4,8,0,0,0,7,0,9,7,9,0,1,9,8,3,3,0,3,0,0,0,0,0,0,0,0,0,0,0,0,0,0,0,0,0,0,0,0,0,0,0,0,0],"split_type":[0,0,0,0,0,0,0,0,0,0,0,0,0,0,0,0,0,0,0,0,0,0,0,0,0,0,0,0,0,0,0,0,0,0,0,0,0,0,0,0,0,0,0,0,0,0,0,0,0,0,0,0,0],"sum_hessian":[4.3428047E4,2.4031584E4,1.9396463E4,4.958317E3,1.9073268E4,4.4019766E3,1.4994485E4,4.9291284E3,2.9188791E1,1.6960277E4,2.112991E3,1.3524753E3,3.0495012E3,2.2952866E3,1.2699199E4,3.5420037E3,1.3871245E3,6.5650034E3,1.0395273E4,2.1023833E3,1.0607743E1,5.286166E2,8.238588E2,2.1606675E3,8.8883374E2,1.6701854E3,6.251011E2,8.435209E3,4.26399E3,1.226315E3,2.3156887E3,3.7498448E0,1.3833746E3,5.3886543E3,1.176349E3,5.5602236E3,4.83505E3,1.7656377E3,3.3674557E2,2.4758675E2,2.8102982E2,4.0353058E2,4.2032825E2,3.19342E2,1.8413256E3,1.4515433E2,7.436794E2,6.528445E2,1.017341E3,8.815634E0,8.426394E3,4.7392615E2,3.790064E3],"tree_param":{"num_deleted":"0","num_feature":"10","num_nodes":"53","size_leaf_vector":"1"}},{"base_weights":[-3.418472E-3,-2.8603894E-1,3.4376085E-1,3.30836E-1,-4.511528E-1,1.9597724E-1,5.7850105E-1,3.4392622E-1,-1.7682123E-1,-5.5375713E-1,3.7615383E-1,3.5694945E-1,7.725053E-2,2.780196E-1,8.4651124E-1,2.87235E-1,5.0642437E-1,-6.4826363E-1,3.6916125E-1,3.8989863E-1,-1.7660813E-1,8.9995414E-1,2.5762028E-1,-3.8191018E-1,2.5054806E-1,4.530511E-1,1.3510284E-1,1.9037762E-1,1.0819685E0,3.451798E-2,1.8230453E-2,1.1186049E-1,1.2562322E-2,-8.7916225E-2,-4.475963E-2,3.7884083E-2,-1.4679189E-1,4.7405913E-2,1.766815E-2,2.9024592E-2,1.2812768E-1,1.5117419E-2,3.50775E-2,-6.372654E-2,3.714491E-2,6.967181E-2,1.799775E-2,7.507065E-2,2.5963992E-2,4.9196582E-2,7.56365E-3,7.35236E-2,-6.168781E-3,9.291695E-2,1.1168339E-1],"categories":[],"categories_nodes":[],"categories_segments":[],"categories_sizes":[],"default_left":[0,0,0,0,0,0,0,0,0,0,0,0,0,0,0,0,0,0,0,0,0,0,0,0,0,0,0,0,0,0,0,0,0,0,0,0,0,0,0,0,0,0,0,0,0,0,0,0,0,0,0,0,0,0,0],"id":20,"left_children":[1,3,5,7,9,11,13,15,-1,17,19,21,23,25,27,29,31,33,35,37,-1,39,41,43,45,47,49,51,53,-1,-1,-1,-1,-1,-1,-1,-1,-1,-1,-1,-1,-1,-1,-1,-1,-1,-1,-1,-1,-1,-1,-1,-1,-1,-1],"loss_changes":[4.125243E3,2.3607578E3,6.5438257E2,1.3508484E2,1.5521743E3,2.2127081E2,5.867124E2,4.4668823E1,0E0,1.4190063E3,6.0105133E1,2.648578E2,5.304662E2,8.592825E1,5.948711E2,2.1879028E1,2.928637E2,6.83291E2,2.743509E1,3.591046E1,0E0,1.7623755E2,4.1160156E1,3.516545E2,1.5225653E2,8.873517E1,4.015162E1,1.3991716E2,1.40625E1,0E0,0E0,0E0,0E0,0E0,0E0,0E0,0E0,0E0,0E0,0E0,0E0,0E0,0E0,0E0,0E0,0E0,0E0,0E0,0E0,0E0,0E0,0E0,0E0,0E0,0E0],"parents":[2147483647,0,0,1,1,2,2,3,3,4,4,5,5,6,6,7,7,9,9,10,10,11,11,12,12,13,13,14,14,15,15,16,16,17,17,18,18,19,19,21,21,22,22,23,23,24,24,25,25,26,26,27,27,28,28],"right_children":[2,4,6,8,10,12,14,16,-1,18,20,22,24,26,28,30,32,34,36,38,-1,40,42,44,46,48,50,52,54,-1,-1,-1,-1,-1,-1,-1,-1,-1,-1,-1,-1,-1,-1,-1,-1,-1,-1,-1,-1,-1,-1,-1,-1,-1,-1],"split_conditions":[5.3192027E-2,-4.894556E-1,2.961903E-1,-1.8938793E-1,8.8782376E-1,-6.0819103E-3,-4.2642206E-1,8.8782376E-1,-1.7682123E-1,8.9150155E-1,-1.8938793E-1,3.7231386E-1,3.7231386E-1,8.958514E-1,3.7231386E-1,5.9399676E-1,8.958514E-1,2.7813495E-3,-1.8938793E-1,8.9150155E-1,-1.7660813E-1,-4.894556E-1,-3.3455527E-1,8.9150155E-1,-1.223751E0,-4.894556E-1,-1.223751E0,-6.0819103E-3,6.7118347E-1,3.451798E-2,1.8230453E-2,1.1186049E-1,1.2562322E-2,-8.7916225E-2,-4.475963E-2,3.7884083E-2,-1.4679189E-1,4.7405913E-2,1.766815E-2,2.9024592E-2,1.2812768E-1,1.5117419E-2,3.50775E-2,-6.372654E-2,3.714491E-2,6.967181E-2,1.799775E-2,7.507065E-2,2.5963992E-2,4.9196582E-2,7.56365E-3,7.35236E-2,-6.168781E-3,9.291695E-2,1.1168339E-1],"split_indices":[4,8,5,4,5,0,2,5,0,0,4,4,4,1,4,0,1,7,4,0,0,8,8,0,3,8,3,0,4,0,0,0,0,0,0,0,0,0,0,0,0,0,0,0,0,0,0,0,0,0,0,0,0,0,0],"split_type":[0,0,0,0,0,0,0,0,0,0,0,0,0,0,0,0,0,0,0,0,0,0,0,0,0,0,0,0,0,0,0,0,0,0,0,0,0,0,0,0,0,0,0,0,0,0,0,0,0,0,0,0,0,0,0],"sum_hessian":[4.2040844E4,2.3175258E4,1.8865584E4,4.893153E3,1.8282105E4,1.1578212E4,7.2873726E3,4.8636577E3,2.9494904E1,1.6265191E4,2.0169133E3,4.913872E3,6.6643403E3,3.4365261E3,3.8508464E3,3.6077712E3,1.2558867E3,1.4754621E4,1.5105703E3,2.0048679E3,1.2045425E1,7.586246E2,4.155247E3,1.8257412E3,4.838599E3,1.5437325E3,1.8927936E3,1.01743475E3,2.8334119E3,2.3227888E3,1.2849823E3,4.808803E2,7.7500635E2,6.8589565E3,7.8956646E3,1.5034425E3,7.127861E0,1.4365953E3,5.682725E2,2.925765E2,4.6604807E2,1.9404994E3,2.2147478E3,1.3636715E3,4.620696E2,6.595892E2,4.17901E3,6.0687866E2,9.368538E2,2.6931805E2,1.6234756E3,3.212063E2,6.9622845E2,5.315454E2,2.3018665E3],"tree_param":{"num_deleted":"0","num_feature":"10","num_nodes":"55","size_leaf_vector":"1"}},{"base_weights":[-1.8357646E-3,-1.1772181E-1,5.3600043E-1,2.4621922E-1,-2.5018108E-1,7.4946094E-1,3.6601523E-1,2.2367729E-1,3.65573E-1,-3.5394773E-1,3.4722444E-1,1.10854805E-1,5.36358E-1,1.7069371E-1,5.215909E-1,2.2946759E-1,-3.7172976E-1,1.9605397E-1,5.009888E-1,-1.8206032E-1,-5.73929E-1,3.036493E-1,4.673049E-1,1.9489148E-1,7.128288E-1,1.3061817E-1,3.8029906E-1,5.576321E-1,4.3095896E-1,3.2401185E-2,2.0062707E-2,9.071816E-3,2.8436989E-2,2.1033247E-3,5.0865162E-2,-5.5694606E-2,1.09512486E-1,-7.2650366E-2,-3.3616297E-2,3.1036276E-2,-3.0231926E-1,2.4379011E-2,6.359784E-2,-8.834923E-3,4.0270235E-2,1.1604589E-1,2.9514117E-2,1.3568002E-2,-2.4950157E-1,1.2772818E-2,5.3108502E-2,5.4088157E-2,7.502443E-2,7.332166E-2,3.9908886E-2],"categories":[],"categories_nodes":[],"categories_segments":[],"categories_sizes":[],"default_left":[0,0,0,0,0,0,0,0,0,0,0,0,0,0,0,0,0,0,0,0,0,0,0,0,0,0,0,0,0,0,0,0,0,0,0,0,0,0,0,0,0,0,0,0,0,0,0,0,0,0,0,0,0,0,0],"id":21,"left_children":[1,3,5,7,9,11,13,15,17,19,21,-1,23,25,27,29,-1,31,33,35,37,39,41,43,45,47,49,51,53,-1,-1,-1,-1,-1,-1,-1,-1,-1,-1,-1,-1,-1,-1,-1,-1,-1,-1,-1,-1,-1,-1,-1,-1,-1,-1],"loss_changes":[2.5349207E3,1.613131E3,2.61333E2,2.3942078E1,1.5209318E3,2.4391028E2,1.2193292E2,1.7230182E2,3.2428574E1,7.902683E2,1.8858032E1,0E0,1.2080902E2,1.4917927E1,7.059326E0,2.0394012E1,0E0,5.843191E0,2.8839722E0,5.619552E3,3.3235132E2,6.0508087E1,3.6225388E1,4.0369476E1,2.4699829E2,2.0239458E1,1.0804272E1,4.7418213E0,5.8746567E0,0E0,0E0,0E0,0E0,0E0,0E0,0E0,0E0,0E0,0E0,0E0,0E0,0E0,0E0,0E0,0E0,0E0,0E0,0E0,0E0,0E0,0E0,0E0,0E0,0E0,0E0],"parents":[2147483647,0,0,1,1,2,2,3,3,4,4,5,5,6,6,7,7,8,8,9,9,10,10,12,12,13,13,14,14,15,15,17,17,18,18,19,19,20,20,21,21,22,22,23,23,24,24,25,25,26,26,27,27,28,28],"right_children":[2,4,6,8,10,12,14,16,18,20,22,-1,24,26,28,30,-1,32,34,36,38,40,42,44,46,48,50,52,54,-1,-1,-1,-1,-1,-1,-1,-1,-1,-1,-1,-1,-1,-1,-1,-1,-1,-1,-1,-1,-1,-1,-1,-1,-1,-1],"split_conditions":[8.8782376E-1,-4.894556E-1,8.958514E-1,4.14517E-1,8.9150155E-1,-4.894556E-1,-4.8443523E-1,3.0288452E-1,-4.8443523E-1,1.1323267E0,1.7786361E-1,1.10854805E-1,2.7813495E-3,1.3230776E0,8.952978E-1,-8.7777513E-1,-3.7172976E-1,-1.1805934E0,-2.0914514E0,2.7813495E-3,1.6140503E-1,6.561579E-2,-4.2642206E-1,-4.2642206E-1,1.1323267E0,1.2320101E0,-7.544167E-1,1.5365508E0,-1.3411947E0,3.2401185E-2,2.0062707E-2,9.071816E-3,2.8436989E-2,2.1033247E-3,5.0865162E-2,-5.5694606E-2,1.09512486E-1,-7.2650366E-2,-3.3616297E-2,3.1036276E-2,-3.0231926E-1,2.4379011E-2,6.359784E-2,-8.834923E-3,4.0270235E-2,1.1604589E-1,2.9514117E-2,1.3568002E-2,-2.4950157E-1,1.2772818E-2,5.3108502E-2,5.4088157E-2,7.502443E-2,7.332166E-2,3.9908886E-2],"split_indices":[5,8,1,5,0,8,2,5,2,7,5,0,7,9,0,9,0,2,8,7,9,5,2,2,7,9,8,2,9,0,0,0,0,0,0,0,0,0,0,0,0,0,0,0,0,0,0,0,0,0,0,0,0,0,0],"split_type":[0,0,0,0,0,0,0,0,0,0,0,0,0,0,0,0,0,0,0,0,0,0,0,0,0,0,0,0,0,0,0,0,0,0,0,0,0,0,0,0,0,0,0,0,0,0,0,0,0,0,0,0,0,0,0],"sum_hessian":[4.066883E4,3.3460066E4,7.2087646E3,8.928241E3,2.4531824E4,3.1942039E3,4.0145608E3,7.5122944E3,1.4159468E3,2.09017E4,3.6301238E3,1.1880648E3,2.0061392E3,1.780847E3,2.2337139E3,7.5022134E3,1.0080877E1,6.298822E2,7.860646E2,1.1734504E4,9.167196E3,2.6661516E3,9.6397235E2,6.8424567E2,1.3218934E3,1.4963711E3,2.844759E2,1.5944882E3,6.392257E2,1.7512085E3,5.751005E3,2.8818573E2,3.416965E2,1.2411681E1,7.7365295E2,9.072161E3,2.662342E3,5.5827104E3,3.5844854E3,2.661687E3,4.46449E0,4.1563977E2,5.483326E2,2.8981302E2,3.9443262E2,6.372178E2,6.846757E2,1.4944384E3,1.9327449E0,1.0703545E2,1.7744043E2,1.4704214E3,1.2406672E2,5.8872204E1,5.803535E2],"tree_param":{"num_deleted":"0","num_feature":"10","num_nodes":"55","size_leaf_vector":"1"}},{"base_weights":[-3.1124414E-3,-1.1145731E-1,5.058226E-1,2.2906128E-1,-2.3719594E-1,7.2792906E-1,3.3594465E-1,5.1479757E-1,2.0976666E-1,-3.33742E-1,3.1726402E-1,1.09612755E-1,5.1576054E-1,6.214198E-1,3.1711888E-1,8.673627E-1,3.1976408E-1,-2.7268887E-1,2.1251297E-1,-1.1649616E-1,-4.8269683E-1,7.40248E-1,2.459993E-1,2.1847439E-1,6.724012E-1,8.5602516E-1,5.416657E-1,-2.8440914E-1,3.195378E-1,1.2549812E-1,4.5886267E-2,1.5297726E-2,7.199288E-2,1.819907E-2,3.049264E-2,-5.026784E-2,1.04236916E-1,-3.141281E-2,-6.913806E-2,8.9137346E-2,6.998768E-2,1.9217318E-2,3.9879788E-2,3.192557E-2,5.1575494E-3,1.1422759E-1,2.6281497E-2,9.217248E-2,-7.215926E-3,2.4584686E-2,6.3818336E-2,2.5395239E-2,3.6696315E-2],"categories":[],"categories_nodes":[],"categories_segments":[],"categories_sizes":[],"default_left":[0,0,0,0,0,0,0,0,0,0,0,0,0,0,0,0,0,0,0,0,0,0,0,0,0,0,0,0,0,0,0,0,0,0,0,0,0,0,0,0,0,0,0,0,0,0,0,0,0,0,0,0,0],"id":22,"left_children":[1,3,5,7,9,11,13,15,17,19,21,-1,23,25,27,29,31,-1,33,35,37,39,41,43,45,47,49,-1,51,-1,-1,-1,-1,-1,-1,-1,-1,-1,-1,-1,-1,-1,-1,-1,-1,-1,-1,-1,-1,-1,-1,-1,-1],"loss_changes":[2.184146E3,1.3983549E3,2.62078E2,4.8450043E1,1.2768971E3,2.3474695E2,2.0984406E1,3.79843E1,6.713327E1,6.573242E2,1.0645932E2,0E0,8.893085E1,4.079033E0,2.9197449E1,3.0712097E1,2.3906315E1,0E0,2.3202087E1,3.6991523E3,4.2371582E2,2.485321E0,2.4836777E1,1.1111498E1,2.407124E2,3.7176247E0,5.094166E0,0E0,1.1407745E1,0E0,0E0,0E0,0E0,0E0,0E0,0E0,0E0,0E0,0E0,0E0,0E0,0E0,0E0,0E0,0E0,0E0,0E0,0E0,0E0,0E0,0E0,0E0,0E0],"parents":[2147483647,0,0,1,1,2,2,3,3,4,4,5,5,6,6,7,7,8,8,9,9,10,10,12,12,13,13,14,14,15,15,16,16,18,18,19,19,20,20,21,21,22,22,23,23,24,24,25,25,26,26,28,28],"right_children":[2,4,6,8,10,12,14,16,18,20,22,-1,24,26,28,30,32,-1,34,36,38,40,42,44,46,48,50,-1,52,-1,-1,-1,-1,-1,-1,-1,-1,-1,-1,-1,-1,-1,-1,-1,-1,-1,-1,-1,-1,-1,-1,-1,-1],"split_conditions":[8.8782376E-1,-4.894556E-1,8.958514E-1,-1.5678136E0,8.9150155E-1,-4.7722664E-1,-1.5678136E0,2.7813495E-3,-1.4751551E0,8.958514E-1,-1.223751E0,1.09612755E-1,2.7813495E-3,-1.2313467E0,-1.4751551E0,-1.3047206E0,7.612631E-1,-2.7268887E-1,1.7786361E-1,1.6140503E-1,1.1323267E0,-1.6812582E0,1.6464256E-1,7.864341E-1,1.1323267E0,1.8385786E0,-5.139136E-1,-2.8440914E-1,-5.383715E-1,1.2549812E-1,4.5886267E-2,1.5297726E-2,7.199288E-2,1.819907E-2,3.049264E-2,-5.026784E-2,1.04236916E-1,-3.141281E-2,-6.913806E-2,8.9137346E-2,6.998768E-2,1.9217318E-2,3.9879788E-2,3.192557E-2,5.1575494E-3,1.1422759E-1,2.6281497E-2,9.217248E-2,-7.215926E-3,2.4584686E-2,6.3818336E-2,2.5395239E-2,3.6696315E-2],"split_indices":[5,8,1,3,0,8,3,7,3,1,3,0,7,8,3,8,0,0,5,9,7,3,5,8,7,0,8,0,8,0,0,0,0,0,0,0,0,0,0,0,0,0,0,0,0,0,0,0,0,0,0,0,0],"split_type":[0,0,0,0,0,0,0,0,0,0,0,0,0,0,0,0,0,0,0,0,0,0,0,0,0,0,0,0,0,0,0,0,0,0,0,0,0,0,0,0,0,0,0,0,0,0,0,0,0,0,0,0,0],"sum_hessian":[3.9608543E4,3.2657102E4,6.951441E3,8.806632E3,2.3850469E4,3.0111868E3,3.9402542E3,5.5543604E2,8.251196E3,2.0313715E4,3.5367542E3,1.0992959E3,1.911891E3,2.4178633E2,3.6984678E3,1.9659714E2,3.5883893E2,6.7824144E0,8.244414E3,8.263479E3,1.2050236E4,5.086038E2,3.0281504E3,6.6057983E2,1.2513112E3,5.8872654E1,1.8291367E2,1.9296201E0,3.6965383E3,9.981359E1,9.678354E1,2.5425067E2,1.0458824E2,6.199736E3,2.0446779E3,6.198459E3,2.0650188E3,6.667183E3,5.3830537E3,1.02779724E2,4.0582407E2,2.240981E3,7.871694E2,4.113031E2,2.4927678E2,5.819327E2,6.693784E2,5.4987442E1,3.8852139E0,4.5870735E1,1.3704294E2,1.553932E3,2.1426062E3],"tree_param":{"num_deleted":"0","num_feature":"10","num_nodes":"53","size_leaf_vector":"1"}},{"base_weights":[-3.6652028E-3,-2.6427945E-1,3.044239E-1,2.4443752E-1,-4.069179E-1,1.8007132E-1,5.149636E-1,2.5688544E-1,-1.6650024E-1,-4.9554455E-1,2.7218974E-1,4.2961052E-1,1.3720866E-1,2.129752E-1,8.0412E-1,2.176974E-1,3.7951335E-1,-6.6317177E-1,-2.4031529E-1,2.844958E-1,-1.6527341E-1,5.471816E-1,3.5815582E-1,6.2828567E-3,2.1117306E-1,5.3247297E-1,1.5750097E-1,1.4446576E-1,1.0611042E0,4.3646824E-2,2.0205276E-2,1.08244024E-1,3.639626E-3,-7.285224E-2,-3.9457437E-2,1.4032696E-1,-6.818208E-2,3.4558788E-2,1.662979E-2,4.918027E-2,7.903856E-2,1.9380732E-2,4.085339E-2,1.8608E-2,-7.783203E-3,8.443547E-3,3.0605707E-2,7.061555E-2,4.482287E-2,2.95124E-2,5.554664E-3,-5.8935783E-3,3.8492344E-2,8.8153094E-2,1.1027652E-1],"categories":[],"categories_nodes":[],"categories_segments":[],"categories_sizes":[],"default_left":[0,0,0,0,0,0,0,0,0,0,0,0,0,0,0,0,0,0,0,0,0,0,0,0,0,0,0,0,0,0,0,0,0,0,0,0,0,0,0,0,0,0,0,0,0,0,0,0,0,0,0,0,0,0,0],"id":23,"left_children":[1,3,5,7,9,11,13,15,-1,17,19,21,23,25,27,29,31,33,35,37,-1,39,41,43,45,47,49,51,53,-1,-1,-1,-1,-1,-1,-1,-1,-1,-1,-1,-1,-1,-1,-1,-1,-1,-1,-1,-1,-1,-1,-1,-1,-1,-1],"loss_changes":[3.1082456E3,1.521852E3,4.6436072E2,1.09599976E2,9.859656E2,1.1924646E2,5.749912E2,2.1851105E1,0E0,6.1972754E2,4.5276E1,1.3536438E1,9.219545E1,5.704413E1,5.7019507E2,1.17582245E1,2.6623242E2,1.5320898E2,4.1699966E3,1.3520203E1,0E0,7.9080353E0,8.362686E0,5.200871E1,7.313321E1,6.6544952E0,3.8538536E1,4.621305E1,1.714038E1,0E0,0E0,0E0,0E0,0E0,0E0,0E0,0E0,0E0,0E0,0E0,0E0,0E0,0E0,0E0,0E0,0E0,0E0,0E0,0E0,0E0,0E0,0E0,0E0,0E0,0E0],"parents":[2147483647,0,0,1,1,2,2,3,3,4,4,5,5,6,6,7,7,9,9,10,10,11,11,12,12,13,13,14,14,15,15,16,16,17,17,18,18,19,19,21,21,22,22,23,23,24,24,25,25,26,26,27,27,28,28],"right_children":[2,4,6,8,10,12,14,16,-1,18,20,22,24,26,28,30,32,34,36,38,-1,40,42,44,46,48,50,52,54,-1,-1,-1,-1,-1,-1,-1,-1,-1,-1,-1,-1,-1,-1,-1,-1,-1,-1,-1,-1,-1,-1,-1,-1,-1,-1],"split_conditions":[5.3192027E-2,-4.894556E-1,2.961903E-1,-1.8938793E-1,8.8782376E-1,-1.223751E0,-4.2642206E-1,8.8782376E-1,-1.6650024E-1,1.6140503E-1,-1.8938793E-1,-4.2642206E-1,6.914357E-1,-1.223751E0,3.7231386E-1,-1.4591699E0,8.958514E-1,-2.6592982E-1,8.958514E-1,4.6800613E-1,-1.6527341E-1,9.698687E-1,3.7231386E-1,-4.6499765E-1,-4.894556E-1,-1.2335238E0,8.958514E-1,8.8782376E-1,6.7118347E-1,4.3646824E-2,2.0205276E-2,1.08244024E-1,3.639626E-3,-7.285224E-2,-3.9457437E-2,1.4032696E-1,-6.818208E-2,3.4558788E-2,1.662979E-2,4.918027E-2,7.903856E-2,1.9380732E-2,4.085339E-2,1.8608E-2,-7.783203E-3,8.443547E-3,3.0605707E-2,7.061555E-2,4.482287E-2,2.95124E-2,5.554664E-3,-5.8935783E-3,3.8492344E-2,8.8153094E-2,1.1027652E-1],"split_indices":[4,8,5,4,5,3,2,5,0,9,4,2,4,3,4,9,1,4,1,2,0,8,4,8,8,6,1,5,4,0,0,0,0,0,0,0,0,0,0,0,0,0,0,0,0,0,0,0,0,0,0,0,0,0,0],"split_type":[0,0,0,0,0,0,0,0,0,0,0,0,0,0,0,0,0,0,0,0,0,0,0,0,0,0,0,0,0,0,0,0,0,0,0,0,0,0,0,0,0,0,0,0,0,0,0,0,0,0,0,0,0,0,0],"sum_hessian":[3.870957E4,2.0970582E4,1.7738988E4,4.592132E3,1.6378451E4,1.1153294E4,6.585694E3,4.5632485E3,2.888306E1,1.4487975E4,1.8904767E3,1.6336185E3,9.519675E3,3.2222183E3,3.3634758E3,3.4602393E3,1.1030093E3,8.74374E3,5.7442344E3,1.8793143E3,1.1162293E1,6.150166E2,1.0186019E3,3.4369497E3,6.0827256E3,4.7543042E2,2.7467878E3,9.434054E2,2.4200703E3,2.2913751E2,3.2311018E3,3.6109573E2,7.419136E2,7.0312925E3,1.7124476E3,1.2158463E3,4.528388E3,1.2376799E3,6.416344E2,5.0340964E2,1.1160697E2,2.4011646E2,7.784855E2,1.0950492E3,2.3419004E3,2.605038E3,3.4776875E3,1.5287425E2,3.2255615E2,1.1681143E3,1.5786736E3,5.1149234E2,4.3191302E2,4.5990012E2,1.9601703E3],"tree_param":{"num_deleted":"0","num_feature":"10","num_nodes":"55","size_leaf_vector":"1"}},{"base_weights":[-5.9434236E-3,-2.483676E-1,2.758413E-1,2.2256187E-1,-3.8340622E-1,1.5742646E-1,4.8255983E-1,2.338562E-1,-1.546767E-1,-4.705744E-1,2.210873E-1,3.0798924E-1,4.3813556E-2,1.4335564E-1,5.928103E-1,2.8812566E-1,9.6552156E-2,-5.534472E-1,3.116164E-1,2.3159546E-1,-1.5398817E-1,7.808505E-1,2.2103737E-1,-3.373493E-1,1.8094726E-1,6.436211E-1,-1.0614703E-1,6.736897E-1,5.260794E-1,3.7731223E-2,2.4099875E-2,-1.8352038E-1,1.0410613E-2,-8.130347E-2,-3.36332E-2,3.2358676E-2,-1.4780656E-1,3.0760271E-2,2.9120983E-3,1.6483461E-2,1.1564251E-1,7.89817E-3,3.206553E-2,4.048236E-2,-5.4450672E-2,1.0064963E-3,2.2344312E-2,1.16962634E-1,2.564329E-2,-5.0472032E-2,4.6686795E-2,8.184602E-2,5.6427713E-2,3.7522465E-2,5.6058772E-2],"categories":[],"categories_nodes":[],"categories_segments":[],"categories_sizes":[],"default_left":[0,0,0,0,0,0,0,0,0,0,0,0,0,0,0,0,0,0,0,0,0,0,0,0,0,0,0,0,0,0,0,0,0,0,0,0,0,0,0,0,0,0,0,0,0,0,0,0,0,0,0,0,0,0,0],"id":24,"left_children":[1,3,5,7,9,11,13,15,-1,17,19,21,23,25,27,29,31,33,35,37,-1,39,41,43,45,47,49,51,53,-1,-1,-1,-1,-1,-1,-1,-1,-1,-1,-1,-1,-1,-1,-1,-1,-1,-1,-1,-1,-1,-1,-1,-1,-1,-1],"loss_changes":[2.5736575E3,1.287991E3,4.2641992E2,9.056212E1,8.2945044E2,1.8950449E2,2.3720642E2,3.3399307E1,0E0,8.918728E2,3.707453E1,1.9572882E2,3.3017584E2,1.9450522E2,2.5489136E1,1.3420685E1,1.8757206E1,7.00771E2,2.8723969E1,3.0360184E1,0E0,1.7093588E2,5.6946793E1,2.5718445E2,3.3730118E1,1.05304474E2,2.3781529E2,3.3769775E1,1.3471558E1,0E0,0E0,0E0,0E0,0E0,0E0,0E0,0E0,0E0,0E0,0E0,0E0,0E0,0E0,0E0,0E0,0E0,0E0,0E0,0E0,0E0,0E0,0E0,0E0,0E0,0E0],"parents":[2147483647,0,0,1,1,2,2,3,3,4,4,5,5,6,6,7,7,9,9,10,10,11,11,12,12,13,13,14,14,15,15,16,16,17,17,18,18,19,19,21,21,22,22,23,23,24,24,25,25,26,26,27,27,28,28],"right_children":[2,4,6,8,10,12,14,16,-1,18,20,22,24,26,28,30,32,34,36,38,-1,40,42,44,46,48,50,52,54,-1,-1,-1,-1,-1,-1,-1,-1,-1,-1,-1,-1,-1,-1,-1,-1,-1,-1,-1,-1,-1,-1,-1,-1,-1,-1],"split_conditions":[5.3192027E-2,-4.894556E-1,2.961903E-1,-1.8938793E-1,8.9150155E-1,-6.0819103E-3,3.7231386E-1,8.952978E-1,-1.546767E-1,8.8782376E-1,-1.8938793E-1,3.7231386E-1,3.7231386E-1,-6.0819103E-3,8.958514E-1,2.7813495E-3,9.7042465E-1,2.7813495E-3,-1.8938793E-1,8.630675E-1,-1.5398817E-1,-4.894556E-1,-5.383715E-1,-4.894556E-1,6.914357E-1,8.630675E-1,8.8782376E-1,-3.125431E-1,6.914357E-1,3.7731223E-2,2.4099875E-2,-1.8352038E-1,1.0410613E-2,-8.130347E-2,-3.36332E-2,3.2358676E-2,-1.4780656E-1,3.0760271E-2,2.9120983E-3,1.6483461E-2,1.1564251E-1,7.89817E-3,3.206553E-2,4.048236E-2,-5.4450672E-2,1.0064963E-3,2.2344312E-2,1.16962634E-1,2.564329E-2,-5.0472032E-2,4.6686795E-2,8.184602E-2,5.6427713E-2,3.7522465E-2,5.6058772E-2],"split_indices":[4,8,5,4,0,0,4,0,0,5,4,4,4,0,1,7,0,7,4,5,0,8,8,8,4,5,5,8,4,0,0,0,0,0,0,0,0,0,0,0,0,0,0,0,0,0,0,0,0,0,0,0,0,0,0],"split_type":[0,0,0,0,0,0,0,0,0,0,0,0,0,0,0,0,0,0,0,0,0,0,0,0,0,0,0,0,0,0,0,0,0,0,0,0,0,0,0,0,0,0,0,0,0,0,0,0,0,0,0,0,0,0,0],"sum_hessian":[3.767336E4,2.0251105E4,1.7422252E4,4.512769E3,1.5738337E4,1.1078119E4,6.3441313E3,4.4850073E3,2.776176E1,1.3755072E4,1.9832651E3,4.763584E3,6.3145356E3,1.5567687E3,4.787363E3,3.2136948E3,1.2713125E3,1.2437606E4,1.3174662E3,1.972364E3,1.0901117E1,7.3865466E2,4.0249292E3,1.6703477E3,4.644188E3,5.175251E2,1.0392437E3,2.1601328E3,2.6272297E3,1.1086312E3,2.1050637E3,4.0095806E0,1.267303E3,5.6634824E3,6.774124E3,1.3095265E3,7.939633E0,1.4336604E3,5.3870355E2,2.8031763E2,4.58337E2,1.6598156E3,2.3651135E3,3.642855E2,1.3060623E3,9.2517126E2,3.7190168E3,2.1857051E2,2.989546E2,6.1298645E2,4.2625717E2,9.270352E2,1.2330978E3,4.9131107E2,2.1359187E3],"tree_param":{"num_deleted":"0","num_feature":"10","num_nodes":"55","size_leaf_vector":"1"}},{"base_weights":[-2.8086877E-3,-2.3203827E-1,2.6049095E-1,-3.1623963E-1,2.5726008E-1,1.481244E-1,4.6160603E-1,-1.3543467E-1,-5.596742E-1,5.172552E-1,8.3550856E-2,2.8760794E-1,5.0422654E-2,1.5363683E-1,5.635981E-1,-5.32747E-1,9.1350645E-1,-6.587585E-1,2.1460411E-1,2.561018E-1,6.6564584E-1,9.280559E-2,-1.3942115E-1,7.148089E-1,2.0840271E-1,-2.7260405E-1,1.6288655E-1,6.2369317E-1,-8.238577E-2,6.531429E-1,4.914085E-1,-6.3910894E-2,2.4997693E-2,1.2824264E-1,6.713404E-3,-8.1721984E-2,-4.134706E-2,3.5554864E-2,4.1912603E-3,-1.3034204E-2,3.0700473E-2,1.1161565E-1,2.8520703E-2,1.6838534E-2,-8.387376E-3,9.5030785E-2,5.8679402E-2,1.3505848E-2,3.4265082E-2,-4.8995767E-2,3.34733E-2,5.7118293E-2,1.0183978E-2,1.1159169E-1,2.6100129E-2,-4.6958145E-2,4.8535805E-2,4.7669332E-2,7.4274816E-2,7.011306E-2,4.550571E-2],"categories":[],"categories_nodes":[],"categories_segments":[],"categories_sizes":[],"default_left":[0,0,0,0,0,0,0,0,0,0,0,0,0,0,0,0,0,0,0,0,0,0,0,0,0,0,0,0,0,0,0,0,0,0,0,0,0,0,0,0,0,0,0,0,0,0,0,0,0,0,0,0,0,0,0,0,0,0,0,0,0],"id":25,"left_children":[1,3,5,7,9,11,13,15,17,19,21,23,25,27,29,31,33,35,37,39,41,43,-1,45,47,49,51,53,55,57,59,-1,-1,-1,-1,-1,-1,-1,-1,-1,-1,-1,-1,-1,-1,-1,-1,-1,-1,-1,-1,-1,-1,-1,-1,-1,-1,-1,-1,-1,-1],"loss_changes":[2.2135862E3,8.078491E2,3.8567273E2,7.3619617E2,1.2998889E2,1.4924103E2,1.9208069E2,4.001405E3,5.470664E2,4.4510406E1,2.375061E1,1.5249704E2,2.3407559E2,1.6906628E2,2.9385498E1,5.79879E2,8.2351807E2,2.453274E2,1.9689346E1,8.289766E0,1.2558426E2,2.2946613E1,0E0,2.0701752E1,3.743959E1,2.1982394E2,1.1905971E2,9.0641785E1,2.2336877E2,3.202881E1,1.9108887E1,0E0,0E0,0E0,0E0,0E0,0E0,0E0,0E0,0E0,0E0,0E0,0E0,0E0,0E0,0E0,0E0,0E0,0E0,0E0,0E0,0E0,0E0,0E0,0E0,0E0,0E0,0E0,0E0,0E0,0E0],"parents":[2147483647,0,0,1,1,2,2,3,3,4,4,5,5,6,6,7,7,8,8,9,9,10,10,11,11,12,12,13,13,14,14,15,15,16,16,17,17,18,18,19,19,20,20,21,21,23,23,24,24,25,25,26,26,27,27,28,28,29,29,30,30],"right_children":[2,4,6,8,10,12,14,16,18,20,22,24,26,28,30,32,34,36,38,40,42,44,-1,46,48,50,52,54,56,58,60,-1,-1,-1,-1,-1,-1,-1,-1,-1,-1,-1,-1,-1,-1,-1,-1,-1,-1,-1,-1,-1,-1,-1,-1,-1,-1,-1,-1,-1,-1],"split_conditions":[5.3192027E-2,8.8782376E-1,2.961903E-1,1.1323267E0,8.958514E-1,-1.2838404E-1,3.7231386E-1,2.7813495E-3,8.9150155E-1,2.7813495E-3,-1.8938793E-1,3.7231386E-1,3.7231386E-1,-6.0819103E-3,8.958514E-1,8.9150155E-1,8.9150155E-1,1.6140503E-1,1.6270259E-1,1.0061505E0,1.1323267E0,8.9150155E-1,-1.3942115E-1,2.7813495E-3,1.1323267E0,8.9150155E-1,-1.223751E0,8.630675E-1,8.8782376E-1,7.6949704E-1,-1.223751E0,-6.3910894E-2,2.4997693E-2,1.2824264E-1,6.713404E-3,-8.1721984E-2,-4.134706E-2,3.5554864E-2,4.1912603E-3,-1.3034204E-2,3.0700473E-2,1.1161565E-1,2.8520703E-2,1.6838534E-2,-8.387376E-3,9.5030785E-2,5.8679402E-2,1.3505848E-2,3.4265082E-2,-4.8995767E-2,3.34733E-2,5.7118293E-2,1.0183978E-2,1.1159169E-1,2.6100129E-2,-4.6958145E-2,4.8535805E-2,4.7669332E-2,7.4274816E-2,7.011306E-2,4.550571E-2],"split_indices":[4,5,5,7,1,0,4,7,0,7,4,4,4,0,1,0,0,9,9,5,7,0,0,7,7,0,3,5,5,5,3,0,0,0,0,0,0,0,0,0,0,0,0,0,0,0,0,0,0,0,0,0,0,0,0,0,0,0,0,0,0],"split_type":[0,0,0,0,0,0,0,0,0,0,0,0,0,0,0,0,0,0,0,0,0,0,0,0,0,0,0,0,0,0,0,0,0,0,0,0,0,0,0,0,0,0,0,0,0,0,0,0,0,0,0,0,0,0,0,0,0,0,0,0,0],"sum_hessian":[3.6673453E4,1.9605209E4,1.7068244E4,1.672707E4,2.8781396E3,1.0951298E4,6.1169473E3,9.599119E3,7.1279507E3,1.1519735E3,1.7261661E3,4.510276E3,6.4410215E3,1.5224264E3,4.594521E3,6.9624224E3,2.6366968E3,6.319406E3,8.0854456E2,4.1838388E2,7.335896E2,1.7163544E3,9.81175E0,7.041814E2,3.8060945E3,1.6630032E3,4.7780186E3,5.0835587E2,1.01407056E3,2.0471569E3,2.547364E3,6.1296646E3,8.327578E2,1.8359298E3,8.0076697E2,3.8377834E3,2.4816226E3,4.4461072E2,3.6393387E2,4.8514187E1,3.698697E2,3.3497858E2,3.98611E2,1.2021475E3,5.1420685E2,2.457221E2,4.584593E2,2.4626643E3,1.34343E3,1.2248481E3,4.3815503E2,6.20383E2,4.1576357E3,2.1478532E2,2.9357053E2,6.03002E2,4.110685E2,6.915953E2,1.3555616E3,3.7361008E2,2.173754E3],"tree_param":{"num_deleted":"0","num_feature":"10","num_nodes":"61","size_leaf_vector":"1"}},{"base_weights":[-3.5425245E-3,-2.7473503E-1,1.90846E-1,1.7055544E-1,-4.0444168E-1,5.07283E-1,1.0429225E-1,1.9584386E-1,-3.0336294E-1,-4.9090162E-1,1.8906191E-1,1.5952133E0,3.469919E-1,-1.500033E-1,2.806849E-1,2.4991833E-1,7.1676925E-2,-2.201268E-1,-6.6685647E-1,2.1854453E-1,-2.6737675E-1,2.728703E-1,2.625556E0,1.4007089E-1,4.8643014E-1,3.3535963E-1,-3.096894E-1,1.4935817E-1,3.8586527E-1,3.358118E-2,1.8715607E-2,-8.66828E-4,2.3067137E-2,-6.730948E-2,1.4511594E-1,-5.2365523E-2,-7.4474126E-2,4.0198364E-3,2.6741937E-2,4.295545E-2,1.4248311E-2,3.236874E-1,2.1596754E-1,-1.3688123E-1,1.4898223E-2,8.838774E-2,3.9735522E-2,5.1886465E-2,2.9977519E-2,-4.5507096E-2,3.1558745E-2,4.762205E-2,8.418935E-3,6.086011E-2,3.490221E-2],"categories":[],"categories_nodes":[],"categories_segments":[],"categories_sizes":[],"default_left":[0,0,0,0,0,0,0,0,0,0,0,0,0,0,0,0,0,0,0,0,0,0,0,0,0,0,0,0,0,0,0,0,0,0,0,0,0,0,0,0,0,0,0,0,0,0,0,0,0,0,0,0,0,0,0],"id":26,"left_children":[1,3,5,7,9,11,13,15,-1,17,19,21,23,25,27,29,31,33,35,37,-1,39,41,43,45,47,49,51,53,-1,-1,-1,-1,-1,-1,-1,-1,-1,-1,-1,-1,-1,-1,-1,-1,-1,-1,-1,-1,-1,-1,-1,-1,-1,-1],"loss_changes":[1.8835847E3,8.616926E2,5.6997034E2,2.7332767E2,5.929353E2,7.7890967E2,7.331439E2,2.2410873E1,0E0,4.8031616E2,1.2463664E2,7.8094446E2,1.1237253E2,5.189501E2,1.332406E2,1.2479767E1,1.2965832E1,3.0090508E3,6.777783E1,1.2678001E1,0E0,5.0945854E0,8.4812744E1,2.1318348E1,8.205768E1,1.0669067E1,4.5808005E2,9.141267E1,4.3756042E1,0E0,0E0,0E0,0E0,0E0,0E0,0E0,0E0,0E0,0E0,0E0,0E0,0E0,0E0,0E0,0E0,0E0,0E0,0E0,0E0,0E0,0E0,0E0,0E0,0E0,0E0],"parents":[2147483647,0,0,1,1,2,2,3,3,4,4,5,5,6,6,7,7,9,9,10,10,11,11,12,12,13,13,14,14,15,15,16,16,17,17,18,18,19,19,21,21,22,22,23,23,24,24,25,25,26,26,27,27,28,28],"right_children":[2,4,6,8,10,12,14,16,-1,18,20,22,24,26,28,30,32,34,36,38,-1,40,42,44,46,48,50,52,54,-1,-1,-1,-1,-1,-1,-1,-1,-1,-1,-1,-1,-1,-1,-1,-1,-1,-1,-1,-1,-1,-1,-1,-1,-1,-1],"split_conditions":[-2.6592982E-1,